{"learner":{"attributes":{"scikit_learn":"{\"_estimator_type\": \"classifier\"}"},"feature_names":["elo_pre_diff","neutral","k_20","k_30","k_40","k_50","k_60"],"feature_types":["float","int","int","int","int","int","int"],"gradient_booster":{"model":{"cats":{"enc":[],"feature_segments":[],"sorted_idx":[]},"gbtree_model_param":{"num_parallel_tree":"1","num_trees":"900"},"iteration_indptr":[0,3,6,9,12,15,18,21,24,27,30,33,36,39,42,45,48,51,54,57,60,63,66,69,72,75,78,81,84,87,90,93,96,99,102,105,108,111,114,117,120,123,126,129,132,135,138,141,144,147,150,153,156,159,162,165,168,171,174,177,180,183,186,189,192,195,198,201,204,207,210,213,216,219,222,225,228,231,234,237,240,243,246,249,252,255,258,261,264,267,270,273,276,279,282,285,288,291,294,297,300,303,306,309,312,315,318,321,324,327,330,333,336,339,342,345,348,351,354,357,360,363,366,369,372,375,378,381,384,387,390,393,396,399,402,405,408,411,414,417,420,423,426,429,432,435,438,441,444,447,450,453,456,459,462,465,468,471,474,477,480,483,486,489,492,495,498,501,504,507,510,513,516,519,522,525,528,531,534,537,540,543,546,549,552,555,558,561,564,567,570,573,576,579,582,585,588,591,594,597,600,603,606,609,612,615,618,621,624,627,630,633,636,639,642,645,648,651,654,657,660,663,666,669,672,675,678,681,684,687,690,693,696,699,702,705,708,711,714,717,720,723,726,729,732,735,738,741,744,747,750,753,756,759,762,765,768,771,774,777,780,783,786,789,792,795,798,801,804,807,810,813,816,819,822,825,828,831,834,837,840,843,846,849,852,855,858,861,864,867,870,873,876,879,882,885,888,891,894,897,900],"tree_info":[0,1,2,0,1,2,0,1,2,0,1,2,0,1,2,0,1,2,0,1,2,0,1,2,0,1,2,0,1,2,0,1,2,0,1,2,0,1,2,0,1,2,0,1,2,0,1,2,0,1,2,0,1,2,0,1,2,0,1,2,0,1,2,0,1,2,0,1,2,0,1,2,0,1,2,0,1,2,0,1,2,0,1,2,0,1,2,0,1,2,0,1,2,0,1,2,0,1,2,0,1,2,0,1,2,0,1,2,0,1,2,0,1,2,0,1,2,0,1,2,0,1,2,0,1,2,0,1,2,0,1,2,0,1,2,0,1,2,0,1,2,0,1,2,0,1,2,0,1,2,0,1,2,0,1,2,0,1,2,0,1,2,0,1,2,0,1,2,0,1,2,0,1,2,0,1,2,0,1,2,0,1,2,0,1,2,0,1,2,0,1,2,0,1,2,0,1,2,0,1,2,0,1,2,0,1,2,0,1,2,0,1,2,0,1,2,0,1,2,0,1,2,0,1,2,0,1,2,0,1,2,0,1,2,0,1,2,0,1,2,0,1,2,0,1,2,0,1,2,0,1,2,0,1,2,0,1,2,0,1,2,0,1,2,0,1,2,0,1,2,0,1,2,0,1,2,0,1,2,0,1,2,0,1,2,0,1,2,0,1,2,0,1,2,0,1,2,0,1,2,0,1,2,0,1,2,0,1,2,0,1,2,0,1,2,0,1,2,0,1,2,0,1,2,0,1,2,0,1,2,0,1,2,0,1,2,0,1,2,0,1,2,0,1,2,0,1,2,0,1,2,0,1,2,0,1,2,0,1,2,0,1,2,0,1,2,0,1,2,0,1,2,0,1,2,0,1,2,0,1,2,0,1,2,0,1,2,0,1,2,0,1,2,0,1,2,0,1,2,0,1,2,0,1,2,0,1,2,0,1,2,0,1,2,0,1,2,0,1,2,0,1,2,0,1,2,0,1,2,0,1,2,0,1,2,0,1,2,0,1,2,0,1,2,0,1,2,0,1,2,0,1,2,0,1,2,0,1,2,0,1,2,0,1,2,0,1,2,0,1,2,0,1,2,0,1,2,0,1,2,0,1,2,0,1,2,0,1,2,0,1,2,0,1,2,0,1,2,0,1,2,0,1,2,0,1,2,0,1,2,0,1,2,0,1,2,0,1,2,0,1,2,0,1,2,0,1,2,0,1,2,0,1,2,0,1,2,0,1,2,0,1,2,0,1,2,0,1,2,0,1,2,0,1,2,0,1,2,0,1,2,0,1,2,0,1,2,0,1,2,0,1,2,0,1,2,0,1,2,0,1,2,0,1,2,0,1,2,0,1,2,0,1,2,0,1,2,0,1,2,0,1,2,0,1,2,0,1,2,0,1,2,0,1,2,0,1,2,0,1,2,0,1,2,0,1,2,0,1,2,0,1,2,0,1,2,0,1,2,0,1,2,0,1,2,0,1,2,0,1,2,0,1,2,0,1,2,0,1,2,0,1,2,0,1,2,0,1,2,0,1,2,0,1,2,0,1,2,0,1,2,0,1,2,0,1,2,0,1,2,0,1,2,0,1,2,0,1,2,0,1,2,0,1,2,0,1,2,0,1,2,0,1,2,0,1,2,0,1,2,0,1,2,0,1,2,0,1,2,0,1,2,0,1,2,0,1,2,0,1,2,0,1,2,0,1,2,0,1,2,0,1,2,0,1,2,0,1,2,0,1,2,0,1,2,0,1,2,0,1,2,0,1,2,0,1,2,0,1,2,0,1,2,0,1,2,0,1,2,0,1,2,0,1,2,0,1,2,0,1,2,0,1,2,0,1,2,0,1,2,0,1,2,0,1,2,0,1,2,0,1,2,0,1,2,0,1,2,0,1,2,0,1,2,0,1,2,0,1,2,0,1,2,0,1,2,0,1,2,0,1,2,0,1,2,0,1,2,0,1,2,0,1,2,0,1,2,0,1,2,0,1,2,0,1,2,0,1,2,0,1,2,0,1,2,0,1,2,0,1,2,0,1,2,0,1,2,0,1,2],"trees":[{"base_weights":[-8.441426E-7,7.000115E-2,-3.0279872E-1,-3.8102484E-1,9.5244154E-2,-2.1451646E-1,-4.6327496E-1,-5.03408E-1,-2.3216064E-1,1.344019E-1,5.8522997E-3,-1.5013665E-1,-2.826825E-1,-3.712893E-1,-5.262174E-1,-5.9889335E-2,-4.0387418E-2,-3.0821526E-2,-7.5719063E-4,9.069323E-3,2.1427521E-2,-3.3477626E-3,8.863627E-3,-1.7250517E-2,-8.89407E-3,-2.4658501E-2,-3.30536E-2,-4.1861203E-2,-2.3534236E-2,-4.6480548E-2,-5.6465834E-2],"categories":[],"categories_nodes":[],"categories_segments":[],"categories_sizes":[],"default_left":[0,0,0,0,0,0,0,0,0,0,0,0,0,0,0,0,0,0,0,0,0,0,0,0,0,0,0,0,0,0,0],"id":0,"left_children":[1,3,5,7,9,11,13,15,17,19,21,23,25,27,29,-1,-1,-1,-1,-1,-1,-1,-1,-1,-1,-1,-1,-1,-1,-1,-1],"loss_changes":[1.919997E2,8.380022E1,2.3997223E1,6.9909706E0,2.4390186E1,4.781021E0,3.29451E0,1.7849617E0,3.0361052E0,1.6896896E1,6.917196E0,7.613325E-1,8.387184E-1,1.498764E0,5.7673645E-1,0E0,0E0,0E0,0E0,0E0,0E0,0E0,0E0,0E0,0E0,0E0,0E0,0E0,0E0,0E0,0E0],"parents":[2147483647,0,0,1,1,2,2,3,3,4,4,5,5,6,6,7,7,8,8,9,9,10,10,11,11,12,12,13,13,14,14],"right_children":[2,4,6,8,10,12,14,16,18,20,22,24,26,28,30,-1,-1,-1,-1,-1,-1,-1,-1,-1,-1,-1,-1,-1,-1,-1,-1],"split_conditions":[2.2611699E2,-4.1368588E2,3.7824905E2,-5.0699063E2,6.756109E1,2.8766275E2,4.5065588E2,-6.0851904E2,1E0,1E0,1E0,1E0,1E0,1E0,5.1748663E2,-5.9889335E-2,-4.0387418E-2,-3.0821526E-2,-7.5719063E-4,9.069323E-3,2.1427521E-2,-3.3477626E-3,8.863627E-3,-1.7250517E-2,-8.89407E-3,-2.4658501E-2,-3.30536E-2,-4.1861203E-2,-2.3534236E-2,-4.6480548E-2,-5.6465834E-2],"split_indices":[0,0,0,0,0,0,0,0,2,2,1,1,4,2,0,0,0,0,0,0,0,0,0,0,0,0,0,0,0,0,0],"split_type":[0,0,0,0,0,0,0,0,0,0,0,0,0,0,0,0,0,0,0,0,0,0,0,0,0,0,0,0,0,0,0],"sum_hessian":[9.0561045E3,7.356231E3,1.6998732E3,3.8914484E2,6.967086E3,1.0981102E3,6.01763E2,2.1226082E2,1.7688402E2,4.844478E3,2.1226082E3,5.6638617E2,5.3172406E2,2.4728027E2,3.544827E2,1.0577306E2,1.0648775E2,1.31859E2,4.502502E1,3.132455E3,1.7120228E3,1.4393713E3,6.832368E2,4.1344403E2,1.5294214E2,3.0659897E2,2.251251E2,1.818868E2,6.5393486E1,1.415072E2,2.129755E2],"tree_param":{"num_deleted":"0","num_feature":"7","num_nodes":"31","size_leaf_vector":"1"}},{"base_weights":[8.6194063E-7,-3.9743435E-1,3.9765564E-1,-6.4886445E-1,-2.1958625E-1,2.0678644E-1,6.7591685E-1,-8.5169554E-1,-5.7575876E-1,-1.5978208E-1,-3.56898E-1,2.8180778E-1,5.099241E-2,5.6285864E-1,8.292692E-1,-9.095443E-2,-7.914757E-2,-5.233246E-2,-7.183555E-2,-2.5044912E-2,-7.343396E-3,-4.1404035E-2,-2.4799747E-2,1.5514888E-2,3.590068E-2,-1.7481262E-3,3.5728555E-2,6.0068876E-2,4.6052646E-2,7.5586066E-2,9.332201E-2],"categories":[],"categories_nodes":[],"categories_segments":[],"categories_sizes":[],"default_left":[0,0,0,0,0,0,0,0,0,0,0,0,0,0,0,0,0,0,0,0,0,0,0,0,0,0,0,0,0,0,0],"id":1,"left_children":[1,3,5,7,9,11,13,15,17,19,21,23,25,27,29,-1,-1,-1,-1,-1,-1,-1,-1,-1,-1,-1,-1,-1,-1,-1,-1],"loss_changes":[2.0001962E3,2.82903E2,3.3585968E2,3.838745E1,3.0399796E1,4.3860046E1,4.4151245E1,1.6927185E0,1.4057129E1,2.0222893E1,6.894623E0,2.4716919E1,2.562106E1,5.4700317E0,7.6123657E0,0E0,0E0,0E0,0E0,0E0,0E0,0E0,0E0,0E0,0E0,0E0,0E0,0E0,0E0,0E0,0E0],"parents":[2147483647,0,0,1,1,2,2,3,3,4,4,5,5,6,6,7,7,8,8,9,9,10,10,11,11,12,12,13,13,14,14],"right_children":[2,4,6,8,10,12,14,16,18,20,22,24,26,28,30,-1,-1,-1,-1,-1,-1,-1,-1,-1,-1,-1,-1,-1,-1,-1,-1],"split_conditions":[2.2198818E1,-1.679309E2,2.1319771E2,-3.757749E2,1E0,1E0,3.408849E2,-4.8681454E2,1E0,-6.644416E1,-3.2573162E1,8.915697E1,1.7157463E2,1E0,4.6417197E2,-9.095443E-2,-7.914757E-2,-5.233246E-2,-7.183555E-2,-2.5044912E-2,-7.343396E-3,-4.1404035E-2,-2.4799747E-2,1.5514888E-2,3.590068E-2,-1.7481262E-3,3.5728555E-2,6.0068876E-2,4.6052646E-2,7.5586066E-2,9.332201E-2],"split_indices":[0,0,0,0,1,1,0,0,1,0,0,0,0,1,0,0,0,0,0,0,0,0,0,0,0,0,0,0,0,0,0],"split_type":[0,0,0,0,0,0,0,0,0,0,0,0,0,0,0,0,0,0,0,0,0,0,0,0,0,0,0,0,0,0,0],"sum_hessian":[1.2654104E4,6.3287993E3,6.325304E3,2.620897E3,3.7079026E3,3.7528408E3,2.5724634E3,6.9154926E2,1.9293477E3,2.584447E3,1.1234556E3,2.5325183E3,1.2203224E3,1.4834606E3,1.0890029E3,3.45525E2,3.460243E2,1.414056E3,5.152916E2,1.2597681E3,1.3246788E3,7.3498956E2,3.8846594E2,9.6018E2,1.5723384E3,9.981278E2,2.2219453E2,1.0795159E3,4.0394467E2,6.4311584E2,4.4588702E2],"tree_param":{"num_deleted":"0","num_feature":"7","num_nodes":"31","size_leaf_vector":"1"}},{"base_weights":[-4.0932022E-7,5.616943E-1,-3.153161E-1,1.3393967E0,4.3315616E-1,-7.778507E-2,-4.79098E-1,1.5327837E0,1.1098863E0,6.3794273E-1,2.3316649E-1,-1.665658E-1,1.08814366E-1,-3.6062914E-1,-5.69236E-1,1.687049E-1,1.4078079E-1,1.0406917E-1,1.3485469E-1,5.214848E-2,9.553074E-2,1.4158222E-2,4.5535695E-2,-7.380919E-3,-2.334304E-2,2.7750893E-2,-2.2068233E-3,-4.204535E-2,-2.3519866E-2,-5.1958617E-2,-6.429871E-2],"categories":[],"categories_nodes":[],"categories_segments":[],"categories_sizes":[],"default_left":[0,0,0,0,0,0,0,0,0,0,0,0,0,0,0,0,0,0,0,0,0,0,0,0,0,0,0,0,0,0,0],"id":2,"left_children":[1,3,5,7,9,11,13,15,17,19,21,23,25,27,29,-1,-1,-1,-1,-1,-1,-1,-1,-1,-1,-1,-1,-1,-1,-1,-1],"loss_changes":[1.8319731E3,3.7117725E2,2.5768677E2,2.1689148E1,1.3061707E2,4.4827843E1,4.1664124E1,3.08844E0,2.6362E0,5.778546E1,3.2838974E1,1.1352646E1,1.9273094E1,1.2634506E1,7.8131104E0,0E0,0E0,0E0,0E0,0E0,0E0,0E0,0E0,0E0,0E0,0E0,0E0,0E0,0E0,0E0,0E0],"parents":[2147483647,0,0,1,1,2,2,3,3,4,4,5,5,6,6,7,7,8,8,9,9,10,10,11,11,12,12,13,13,14,14],"right_children":[2,4,6,8,10,12,14,16,18,20,22,24,26,28,30,-1,-1,-1,-1,-1,-1,-1,-1,-1,-1,-1,-1,-1,-1,-1,-1],"split_conditions":[-5.8897118E1,-3.866824E2,9.308186E1,-4.8681454E2,-1.7102858E2,1E0,2.036147E2,-6.0851904E2,1E0,1E0,1E0,5.0172415E0,9.5314245E0,1E0,3.408849E2,1.687049E-1,1.4078079E-1,1.0406917E-1,1.3485469E-1,5.214848E-2,9.553074E-2,1.4158222E-2,4.5535695E-2,-7.380919E-3,-2.334304E-2,2.7750893E-2,-2.2068233E-3,-4.204535E-2,-2.3519866E-2,-5.1958617E-2,-6.429871E-2],"split_indices":[0,0,0,0,0,1,0,0,1,1,1,0,0,1,0,0,0,0,0,0,0,0,0,0,0,0,0,0,0,0,0],"split_type":[0,0,0,0,0,0,0,0,0,0,0,0,0,0,0,0,0,0,0,0,0,0,0,0,0,0,0,0,0,0,0],"sum_hessian":[1.0341635E4,3.717896E3,6.623739E3,5.25998E2,3.191898E3,2.70385E3,3.919889E3,2.8238217E2,2.4361583E2,1.5759536E3,1.6159442E3,1.8322196E3,8.716305E2,1.6959253E3,2.2239636E3,1.2078775E2,1.6159442E2,1.9301556E2,5.0600273E1,1.1548289E3,4.2112485E2,1.1454432E3,4.7050092E2,7.6838965E2,1.06383E3,3.8031818E2,4.9131232E2,1.1466675E3,5.492578E2,1.3339701E3,8.899935E2],"tree_param":{"num_deleted":"0","num_feature":"7","num_nodes":"31","size_leaf_vector":"1"}},{"base_weights":[4.0082642E-4,6.3234314E-2,-2.8853643E-1,-3.6906055E-1,8.661206E-2,-2.1339454E-1,-4.6837017E-1,-4.9023324E-1,-2.2465122E-1,1.0801146E-1,-5.694806E-2,-1.3854234E-1,-2.7604255E-1,-4.0858766E-1,-5.4650277E-2,-5.8606345E-2,-3.9200988E-2,-2.9891923E-2,-8.851623E-4,6.815997E-3,1.7960561E-2,-1.1207905E-3,-1.5016924E-2,-1.6258528E-2,-7.2811246E-3,-3.0506704E-2,-2.0510377E-2,-4.3977242E-2,-3.1594835E-2],"categories":[],"categories_nodes":[],"categories_segments":[],"categories_sizes":[],"default_left":[0,0,0,0,0,0,0,0,0,0,0,0,0,0,0,0,0,0,0,0,0,0,0,0,0,0,0,0,0],"id":3,"left_children":[1,3,5,7,9,11,13,15,17,19,21,23,25,27,-1,-1,-1,-1,-1,-1,-1,-1,-1,-1,-1,-1,-1,-1,-1],"loss_changes":[1.6434882E2,7.517661E1,2.1750305E1,6.568409E0,2.1679588E1,5.318321E0,1.9986343E0,1.7157135E0,2.817811E0,1.7506195E1,3.9034824E0,8.13838E-1,1.2156906E0,6.5104675E-1,0E0,0E0,0E0,0E0,0E0,0E0,0E0,0E0,0E0,0E0,0E0,0E0,0E0,0E0,0E0],"parents":[2147483647,0,0,1,1,2,2,3,3,4,4,5,5,6,6,7,7,8,8,9,9,10,10,11,11,12,12,13,13],"right_children":[2,4,6,8,10,12,14,16,18,20,22,24,26,28,-1,-1,-1,-1,-1,-1,-1,-1,-1,-1,-1,-1,-1,-1,-1],"split_conditions":[2.2936823E2,-4.1368588E2,4.037039E2,-5.0699063E2,1.5238466E2,2.8766275E2,5.1748663E2,-6.0851904E2,1E0,1E0,1E0,1E0,1E0,1E0,-5.4650277E-2,-5.8606345E-2,-3.9200988E-2,-2.9891923E-2,-8.851623E-4,6.815997E-3,1.7960561E-2,-1.1207905E-3,-1.5016924E-2,-1.6258528E-2,-7.2811246E-3,-3.0506704E-2,-2.0510377E-2,-4.3977242E-2,-3.1594835E-2],"split_indices":[0,0,0,0,0,0,0,0,2,2,4,1,2,2,0,0,0,0,0,0,0,0,0,0,0,0,0,0,0],"split_type":[0,0,0,0,0,0,0,0,0,0,0,0,0,0,0,0,0,0,0,0,0,0,0,0,0,0,0,0,0],"sum_hessian":[9.050563E3,7.4345884E3,1.6159751E3,3.8066418E2,7.0539243E3,1.1412858E3,4.7468933E2,2.0568274E2,1.7498145E2,6.1390684E3,9.14856E2,5.2145715E2,6.198287E2,2.724533E2,2.0223602E2,1.015957E2,1.0408703E2,1.2989317E2,4.5088264E1,3.9450725E3,2.1939958E3,6.144758E2,3.0038013E2,3.807236E2,1.4073354E2,4.3751825E2,1.8231044E2,2.0103323E2,7.142006E1],"tree_param":{"num_deleted":"0","num_feature":"7","num_nodes":"29","size_leaf_vector":"1"}},{"base_weights":[9.490045E-5,-3.658551E-1,3.644581E-1,-5.980072E-1,-2.0256834E-1,1.5876402E-1,5.830536E-1,-7.7856445E-1,-5.2677286E-1,-1.4808647E-1,-3.2792085E-1,2.3300703E-1,6.8004294E-3,4.850461E-1,7.6047266E-1,-8.407824E-2,-7.223705E-2,-4.78418E-2,-6.572673E-2,-2.313684E-2,-6.8886266E-3,-4.5996305E-2,-2.8547032E-2,1.3443715E-2,2.97135E-2,-5.1786765E-3,1.6480768E-2,4.3652903E-2,5.7432503E-2,6.9226235E-2,8.5716896E-2],"categories":[],"categories_nodes":[],"categories_segments":[],"categories_sizes":[],"default_left":[0,0,0,0,0,0,0,0,0,0,0,0,0,0,0,0,0,0,0,0,0,0,0,0,0,0,0,0,0,0,0],"id":4,"left_children":[1,3,5,7,9,11,13,15,17,19,21,23,25,27,29,-1,-1,-1,-1,-1,-1,-1,-1,-1,-1,-1,-1,-1,-1,-1,-1],"loss_changes":[1.6848433E3,2.3885364E2,2.846018E2,3.306476E1,2.5237701E1,3.6817482E1,5.2999146E1,1.9596863E0,1.1481628E1,1.701912E1,6.1515274E0,1.3817955E1,9.933412E0,8.324921E0,6.5983887E0,0E0,0E0,0E0,0E0,0E0,0E0,0E0,0E0,0E0,0E0,0E0,0E0,0E0,0E0,0E0,0E0],"parents":[2147483647,0,0,1,1,2,2,3,3,4,4,5,5,6,6,7,7,8,8,9,9,10,10,11,11,12,12,13,13,14,14],"right_children":[2,4,6,8,10,12,14,16,18,20,22,24,26,28,30,-1,-1,-1,-1,-1,-1,-1,-1,-1,-1,-1,-1,-1,-1,-1,-1],"split_conditions":[2.2198818E1,-1.679309E2,1.8346706E2,-3.6524573E2,1E0,1E0,3.408849E2,-4.8681454E2,1E0,-6.644416E1,-1.0798914E2,8.240181E1,1.3430078E2,2.6950812E2,4.6417197E2,-8.407824E-2,-7.223705E-2,-4.78418E-2,-6.572673E-2,-2.313684E-2,-6.8886266E-3,-4.5996305E-2,-2.8547032E-2,1.3443715E-2,2.97135E-2,-5.1786765E-3,1.6480768E-2,4.3652903E-2,5.7432503E-2,6.9226235E-2,8.5716896E-2],"split_indices":[0,0,0,0,1,1,0,0,1,0,0,0,0,0,0,0,0,0,0,0,0,0,0,0,0,0,0,0,0,0,0],"split_type":[0,0,0,0,0,0,0,0,0,0,0,0,0,0,0,0,0,0,0,0,0,0,0,0,0,0,0,0,0,0,0],"sum_hessian":[1.2633814E4,6.30318E3,6.330635E3,2.601644E3,3.7015364E3,3.2624548E3,3.0681797E3,7.332216E2,1.8684224E3,2.5816553E3,1.1198811E3,2.1913298E3,1.0711249E3,1.978807E3,1.0893728E3,3.413342E2,3.9188745E2,1.3666681E3,5.0175433E2,1.2574642E3,1.3241909E3,2.700518E2,8.4982935E2,8.649412E2,1.3263887E3,7.81884E2,2.8924094E2,1.2858982E3,6.929088E2,6.435596E2,4.4581317E2],"tree_param":{"num_deleted":"0","num_feature":"7","num_nodes":"31","size_leaf_vector":"1"}},{"base_weights":[-4.6717553E-4,4.993225E-1,-2.974894E-1,1.0216621E0,3.5775548E-1,-7.327186E-2,-4.5677257E-1,1.2958367E0,8.5439867E-1,5.319259E-1,2.1024148E-1,-1.5668558E-1,9.899411E-2,-3.418376E-1,-5.4580253E-1,1.4186804E-1,1.19540945E-1,9.5903985E-2,7.428209E-2,4.1708916E-2,8.343096E-2,1.2716198E-2,4.082521E-2,-7.03682E-3,-2.1964625E-2,2.5057778E-2,-2.0927947E-3,-3.9964806E-2,-2.2241868E-2,-4.946391E-2,-6.1695356E-2],"categories":[],"categories_nodes":[],"categories_segments":[],"categories_sizes":[],"default_left":[0,0,0,0,0,0,0,0,0,0,0,0,0,0,0,0,0,0,0,0,0,0,0,0,0,0,0,0,0,0,0],"id":5,"left_children":[1,3,5,7,9,11,13,15,17,19,21,23,25,27,29,-1,-1,-1,-1,-1,-1,-1,-1,-1,-1,-1,-1,-1,-1,-1,-1],"loss_changes":[1.5339828E3,2.8446887E2,2.3144739E2,3.6535156E1,7.779071E1,3.8715282E1,3.858789E1,2.1171265E0,5.27417E0,4.7911407E1,2.6981934E1,9.848141E0,1.5988564E1,1.1348297E1,7.461792E0,0E0,0E0,0E0,0E0,0E0,0E0,0E0,0E0,0E0,0E0,0E0,0E0,0E0,0E0,0E0,0E0],"parents":[2147483647,0,0,1,1,2,2,3,3,4,4,5,5,6,6,7,7,8,8,9,9,10,10,11,11,12,12,13,13,14,14],"right_children":[2,4,6,8,10,12,14,16,18,20,22,24,26,28,30,-1,-1,-1,-1,-1,-1,-1,-1,-1,-1,-1,-1,-1,-1,-1,-1],"split_conditions":[-5.8897118E1,-3.319652E2,9.308186E1,-4.8681454E2,-1.7102858E2,1E0,2.036147E2,-6.0851904E2,-3.866824E2,1E0,1E0,5.0172415E0,9.5314245E0,1E0,3.3394736E2,1.4186804E-1,1.19540945E-1,9.5903985E-2,7.428209E-2,4.1708916E-2,8.343096E-2,1.2716198E-2,4.082521E-2,-7.03682E-3,-2.1964625E-2,2.5057778E-2,-2.0927947E-3,-3.9964806E-2,-2.2241868E-2,-4.946391E-2,-6.1695356E-2],"split_indices":[0,0,0,0,0,1,0,0,0,1,1,0,0,1,0,0,0,0,0,0,0,0,0,0,0,0,0,0,0,0,0],"split_type":[0,0,0,0,0,0,0,0,0,0,0,0,0,0,0,0,0,0,0,0,0,0,0,0,0,0,0,0,0,0,0],"sum_hessian":[1.0331424E4,3.8509216E3,6.480502E3,8.1981915E2,3.0311025E3,2.6922178E3,3.7882842E3,3.080778E2,5.1174136E2,1.3887697E3,1.6423328E3,1.8139615E3,8.782563E2,1.655685E3,2.132599E3,1.326691E2,1.7540868E2,2.6015997E2,2.5158139E2,1.0082457E3,3.805239E2,1.1580789E3,4.8425397E2,7.659638E2,1.0479977E3,3.8743805E2,4.908182E2,1.1140361E3,5.416489E2,1.2451713E3,8.874279E2],"tree_param":{"num_deleted":"0","num_feature":"7","num_nodes":"31","size_leaf_vector":"1"}},{"base_weights":[1.2867098E-3,5.8424555E-2,-2.706283E-1,-3.5562992E-1,8.0116875E-2,-1.9769274E-1,-4.4939518E-1,-5.7292517E-2,-2.768151E-1,4.131264E-2,1.5038046E-1,-1.2636349E-1,-2.581724E-1,-3.8915658E-1,-5.2918244E-2,-3.3962842E-2,-5.400419E-3,6.163681E-3,-9.235904E-3,1.9466233E-2,7.6958514E-3,-1.4975274E-2,-6.2805614E-3,-2.8706675E-2,-1.8801434E-2,-4.2082172E-2,-2.9596854E-2],"categories":[],"categories_nodes":[],"categories_segments":[],"categories_sizes":[],"default_left":[0,0,0,0,0,0,0,0,0,0,0,0,0,0,0,0,0,0,0,0,0,0,0,0,0,0,0],"id":6,"left_children":[1,3,5,7,9,11,13,-1,15,17,19,21,23,25,-1,-1,-1,-1,-1,-1,-1,-1,-1,-1,-1,-1,-1],"loss_changes":[1.4044473E2,6.712167E1,2.0377167E1,6.2131653E0,1.934898E1,4.784397E0,1.9763794E0,0E0,3.8298187E0,1.2433797E1,8.195282E0,7.551508E-1,1.1690216E0,6.500473E-1,0E0,0E0,0E0,0E0,0E0,0E0,0E0,0E0,0E0,0E0,0E0,0E0,0E0],"parents":[2147483647,0,0,1,1,2,2,3,3,4,4,5,5,6,6,8,8,9,9,10,10,11,11,12,12,13,13],"right_children":[2,4,6,8,10,12,14,-1,16,18,20,22,24,26,-1,-1,-1,-1,-1,-1,-1,-1,-1,-1,-1,-1,-1],"split_conditions":[2.2936823E2,-4.1368588E2,4.037039E2,-6.0851904E2,1E0,2.8766275E2,5.1748663E2,-5.7292517E-2,1E0,1.5238466E2,3.880108E1,1E0,1E0,1E0,-5.2918244E-2,-3.3962842E-2,-5.400419E-3,6.163681E-3,-9.235904E-3,1.9466233E-2,7.6958514E-3,-1.4975274E-2,-6.2805614E-3,-2.8706675E-2,-1.8801434E-2,-4.2082172E-2,-2.9596854E-2],"split_indices":[0,0,0,0,2,0,0,0,2,0,0,1,2,2,0,0,0,0,0,0,0,0,0,0,0,0,0],"split_type":[0,0,0,0,0,0,0,0,0,0,0,0,0,0,0,0,0,0,0,0,0,0,0,0,0,0,0],"sum_hessian":[9.037566E3,7.4689014E3,1.5686646E3,3.7105002E2,7.0978516E3,1.1156099E3,4.530547E2,9.709274E1,2.7395728E2,4.5735957E3,2.524256E3,5.1330774E2,6.023021E2,2.6150122E2,1.9155347E2,2.1330075E2,6.0656536E1,3.9704463E3,6.0314935E2,1.573565E3,9.506911E2,3.742338E2,1.3907396E2,4.2441595E2,1.7788617E2,1.9255534E2,6.894588E1],"tree_param":{"num_deleted":"0","num_feature":"7","num_nodes":"27","size_leaf_vector":"1"}},{"base_weights":[-9.985109E-5,-3.3817223E-1,3.3503976E-1,-5.5465215E-1,-1.8743691E-1,1.459385E-1,5.3686893E-1,-7.344139E-1,-4.9078983E-1,-1.3772056E-1,-3.021868E-1,2.1488665E-1,4.808936E-3,4.458279E-1,7.0268136E-1,-7.937926E-2,-6.882009E-2,-4.470847E-2,-6.1097022E-2,-2.1431724E-2,-6.5017515E-3,-4.264152E-2,-2.6236786E-2,1.3221713E-2,2.7932826E-2,-4.9423506E-3,1.5095993E-2,4.010099E-2,5.2845325E-2,6.378938E-2,7.949346E-2],"categories":[],"categories_nodes":[],"categories_segments":[],"categories_sizes":[],"default_left":[0,0,0,0,0,0,0,0,0,0,0,0,0,0,0,0,0,0,0,0,0,0,0,0,0,0,0,0,0,0,0],"id":7,"left_children":[1,3,5,7,9,11,13,15,17,19,21,23,25,27,29,-1,-1,-1,-1,-1,-1,-1,-1,-1,-1,-1,-1,-1,-1,-1,-1],"loss_changes":[1.4256132E3,2.042923E2,2.4108008E2,2.9151001E1,2.103331E1,3.1755417E1,4.5820618E1,1.2973328E0,9.705658E0,1.4349628E1,5.407913E0,1.1642899E1,8.505318E0,7.1039124E0,5.956909E0,0E0,0E0,0E0,0E0,0E0,0E0,0E0,0E0,0E0,0E0,0E0,0E0,0E0,0E0,0E0,0E0],"parents":[2147483647,0,0,1,1,2,2,3,3,4,4,5,5,6,6,7,7,8,8,9,9,10,10,11,11,12,12,13,13,14,14],"right_children":[2,4,6,8,10,12,14,16,18,20,22,24,26,28,30,-1,-1,-1,-1,-1,-1,-1,-1,-1,-1,-1,-1,-1,-1,-1,-1],"split_conditions":[2.2198818E1,-1.679309E2,1.8346706E2,-3.757749E2,1E0,1E0,3.408849E2,-5.0699063E2,1E0,-6.644416E1,-1.0798914E2,8.915697E1,1.3430078E2,2.6950812E2,4.6417197E2,-7.937926E-2,-6.882009E-2,-4.470847E-2,-6.1097022E-2,-2.1431724E-2,-6.5017515E-3,-4.264152E-2,-2.6236786E-2,1.3221713E-2,2.7932826E-2,-4.9423506E-3,1.5095993E-2,4.010099E-2,5.2845325E-2,6.378938E-2,7.949346E-2],"split_indices":[0,0,0,0,1,1,0,0,1,0,0,0,0,0,0,0,0,0,0,0,0,0,0,0,0,0,0,0,0,0,0],"split_type":[0,0,0,0,0,0,0,0,0,0,0,0,0,0,0,0,0,0,0,0,0,0,0,0,0,0,0,0,0,0,0],"sum_hessian":[1.25804795E4,6.262833E3,6.317647E3,2.5696812E3,3.6931519E3,3.2625579E3,3.055089E3,6.7085034E2,1.8988308E3,2.5782874E3,1.1148645E3,2.1914253E3,1.0711324E3,1.9746023E3,1.0804868E3,2.865232E2,3.8432715E2,1.3959106E3,5.0292017E2,1.2545753E3,1.3237122E3,2.6825262E2,8.466119E2,9.612845E2,1.2301409E3,7.8172034E2,2.8941214E2,1.283989E3,6.906134E2,6.393788E2,4.4110797E2],"tree_param":{"num_deleted":"0","num_feature":"7","num_nodes":"31","size_leaf_vector":"1"}},{"base_weights":[-1.0073441E-3,4.469216E-1,-2.8075475E-1,8.971924E-1,3.215456E-1,-6.919076E-2,-4.3575373E-1,1.1272691E0,7.550173E-1,4.7447783E-1,1.8984799E-1,-1.4721486E-1,8.920814E-2,-3.3018842E-1,-5.301522E-1,1.2327882E-1,1.04096316E-1,8.429032E-2,6.605371E-2,3.7202757E-2,7.400815E-2,1.1406107E-2,3.6795013E-2,-6.7329514E-3,-2.0619553E-2,2.2655392E-2,-2.119785E-3,-3.8361542E-2,-2.1999745E-2,-4.8050094E-2,-5.9876528E-2],"categories":[],"categories_nodes":[],"categories_segments":[],"categories_sizes":[],"default_left":[0,0,0,0,0,0,0,0,0,0,0,0,0,0,0,0,0,0,0,0,0,0,0,0,0,0,0,0,0,0,0],"id":8,"left_children":[1,3,5,7,9,11,13,15,17,19,21,23,25,27,29,-1,-1,-1,-1,-1,-1,-1,-1,-1,-1,-1,-1,-1,-1,-1,-1],"loss_changes":[1.2905609E3,2.2323297E2,2.0786514E2,2.7339478E1,6.2318542E1,3.315888E1,3.6286194E1,1.6958313E0,3.8912354E0,3.8719788E1,2.2452923E1,8.454041E0,1.343552E1,1.0099899E1,6.2870483E0,0E0,0E0,0E0,0E0,0E0,0E0,0E0,0E0,0E0,0E0,0E0,0E0,0E0,0E0,0E0,0E0],"parents":[2147483647,0,0,1,1,2,2,3,3,4,4,5,5,6,6,7,7,8,8,9,9,10,10,11,11,12,12,13,13,14,14],"right_children":[2,4,6,8,10,12,14,16,18,20,22,24,26,28,30,-1,-1,-1,-1,-1,-1,-1,-1,-1,-1,-1,-1,-1,-1,-1,-1],"split_conditions":[-5.8897118E1,-3.319652E2,9.308186E1,-4.8681454E2,-1.7102858E2,1E0,2.1319771E2,-6.0851904E2,-3.866824E2,1E0,1E0,5.0172415E0,9.5314245E0,1E0,3.408849E2,1.2327882E-1,1.04096316E-1,8.429032E-2,6.605371E-2,3.7202757E-2,7.400815E-2,1.1406107E-2,3.6795013E-2,-6.7329514E-3,-2.0619553E-2,2.2655392E-2,-2.119785E-3,-3.8361542E-2,-2.1999745E-2,-4.8050094E-2,-5.9876528E-2],"split_indices":[0,0,0,0,0,1,0,0,0,1,1,0,0,1,0,0,0,0,0,0,0,0,0,0,0,0,0,0,0,0,0],"split_type":[0,0,0,0,0,0,0,0,0,0,0,0,0,0,0,0,0,0,0,0,0,0,0,0,0,0,0,0,0,0,0],"sum_hessian":[1.0297195E4,3.9584172E3,6.3387783E3,8.608031E2,3.0976143E3,2.6809265E3,3.6578516E3,3.261225E2,5.346806E2,1.4320552E3,1.665559E3,1.7962169E3,8.8470953E2,1.728914E3,1.9289377E3,1.4075256E2,1.8536993E2,2.7290326E2,2.6177734E2,1.0351654E3,3.9688974E2,1.1695336E3,4.9602548E2,7.638181E2,1.0323989E3,3.9378564E2,4.9092392E2,1.1626921E3,5.6622186E2,1.1237493E3,8.051885E2],"tree_param":{"num_deleted":"0","num_feature":"7","num_nodes":"31","size_leaf_vector":"1"}},{"base_weights":[2.4920532E-3,4.373538E-2,-3.2169735E-1,-3.4122747E-1,6.195169E-2,-2.5214267E-1,-4.6160614E-1,-4.6237475E-1,-2.0244344E-1,9.10431E-2,-7.102016E-2,-2.842528E-1,-1.7455623E-1,-3.9906698E-1,-5.125972E-1,-5.5983264E-2,-3.6668282E-2,-2.7394954E-2,-1.514775E-4,5.5214795E-3,1.5474434E-2,-1.0019756E-2,-2.1362487E-4,-2.5102356E-2,-3.634275E-2,-2.221739E-2,-1.0639098E-2,-4.2396214E-2,-2.897321E-2,-4.9211904E-2,-5.9524894E-2],"categories":[],"categories_nodes":[],"categories_segments":[],"categories_sizes":[],"default_left":[0,0,0,0,0,0,0,0,0,0,0,0,0,0,0,0,0,0,0,0,0,0,0,0,0,0,0,0,0,0,0],"id":9,"left_children":[1,3,5,7,9,11,13,15,17,19,21,23,25,27,29,-1,-1,-1,-1,-1,-1,-1,-1,-1,-1,-1,-1,-1,-1,-1,-1],"loss_changes":[1.2061895E2,5.6142822E1,9.791496E0,5.9884644E0,2.9569214E1,1.6501045E0,8.697357E-1,1.5886955E0,2.4474993E0,1.4303448E1,2.7580934E0,1.1741409E0,6.3300705E-1,3.0129814E-1,1.5220642E-2,0E0,0E0,0E0,0E0,0E0,0E0,0E0,0E0,0E0,0E0,0E0,0E0,0E0,0E0,0E0,0E0],"parents":[2147483647,0,0,1,1,2,2,3,3,4,4,5,5,6,6,7,7,8,8,9,9,10,10,11,11,12,12,13,13,14,14],"right_children":[2,4,6,8,10,12,14,16,18,20,22,24,26,28,30,-1,-1,-1,-1,-1,-1,-1,-1,-1,-1,-1,-1,-1,-1,-1,-1],"split_conditions":[2.8766275E2,-4.1368588E2,4.37443E2,-5.0699063E2,1.5483754E2,1E0,5.1748663E2,-6.0851904E2,1E0,1E0,1E0,3.7824905E2,3.5540955E2,1E0,7.521008E2,-5.5983264E-2,-3.6668282E-2,-2.7394954E-2,-1.514775E-4,5.5214795E-3,1.5474434E-2,-1.0019756E-2,-2.1362487E-4,-2.5102356E-2,-3.634275E-2,-2.221739E-2,-1.0639098E-2,-4.2396214E-2,-2.897321E-2,-4.9211904E-2,-5.9524894E-2],"split_indices":[0,0,0,0,0,2,0,0,2,2,1,0,0,1,0,0,0,0,0,0,0,0,0,0,0,0,0,0,0,0,0],"split_type":[0,0,0,0,0,0,0,0,0,0,0,0,0,0,0,0,0,0,0,0,0,0,0,0,0,0,0,0,0,0,0],"sum_hessian":[9.019121E3,8.0019756E3,1.01714514E3,3.6074142E2,7.6412344E3,6.8126245E2,3.358827E2,1.9136426E2,1.6937717E2,6.269842E3,1.3713926E3,4.7996094E2,2.0130151E2,1.5482283E2,1.8105986E2,9.24043E1,9.895997E1,1.24652626E2,4.4724537E1,4.0140405E3,2.2558013E3,9.630258E2,4.0836682E2,3.4101096E2,1.3894998E2,1.1718276E2,8.411875E1,1.2376448E2,3.1058348E1,1.5068068E2,3.037917E1],"tree_param":{"num_deleted":"0","num_feature":"7","num_nodes":"31","size_leaf_vector":"1"}},{"base_weights":[-5.020317E-4,-3.1318292E-1,3.0826694E-1,-5.3088015E-1,-1.8181357E-1,1.3360548E-1,4.9618673E-1,-6.899781E-1,-4.6874198E-1,-1.3533613E-1,-2.8937507E-1,1.9775644E-1,2.3729645E-3,4.1095212E-1,6.530208E-1,-7.696735E-2,-6.56845E-2,-4.2979628E-2,-5.7956543E-2,-2.0983443E-2,-6.4587253E-3,-4.1313052E-2,-2.4123846E-2,1.1434535E-2,2.5213048E-2,-2.0406342E-3,3.0994985E-2,3.4794293E-2,4.6232183E-2,5.9049983E-2,7.426938E-2],"categories":[],"categories_nodes":[],"categories_segments":[],"categories_sizes":[],"default_left":[0,0,0,0,0,0,0,0,0,0,0,0,0,0,0,0,0,0,0,0,0,0,0,0,0,0,0,0,0,0,0],"id":10,"left_children":[1,3,5,7,9,11,13,15,17,19,21,23,25,27,29,-1,-1,-1,-1,-1,-1,-1,-1,-1,-1,-1,-1,-1,-1,-1,-1],"loss_changes":[1.2072078E3,1.7757648E2,2.0642975E2,2.2785889E1,1.9337936E1,2.7461792E1,4.023938E1,1.2224731E0,7.019806E0,1.4261681E1,6.86203E0,9.908241E0,7.517559E0,6.202545E0,5.533966E0,0E0,0E0,0E0,0E0,0E0,0E0,0E0,0E0,0E0,0E0,0E0,0E0,0E0,0E0,0E0,0E0],"parents":[2147483647,0,0,1,1,2,2,3,3,4,4,5,5,6,6,7,7,8,8,9,9,10,10,11,11,12,12,13,13,14,14],"right_children":[2,4,6,8,10,12,14,16,18,20,22,24,26,28,30,-1,-1,-1,-1,-1,-1,-1,-1,-1,-1,-1,-1,-1,-1,-1,-1],"split_conditions":[2.2198818E1,-1.812143E2,1.8346706E2,-3.757749E2,1E0,1E0,3.408849E2,-5.672506E2,1E0,-7.121598E1,-1.0798914E2,8.240181E1,1.7157463E2,2.4007841E2,4.6417197E2,-7.696735E-2,-6.56845E-2,-4.2979628E-2,-5.7956543E-2,-2.0983443E-2,-6.4587253E-3,-4.1313052E-2,-2.4123846E-2,1.1434535E-2,2.5213048E-2,-2.0406342E-3,3.0994985E-2,3.4794293E-2,4.6232183E-2,5.9049983E-2,7.426938E-2],"split_indices":[0,0,0,0,1,1,0,0,1,0,0,0,0,0,0,0,0,0,0,0,0,0,0,0,0,0,0,0,0,0,0],"split_type":[0,0,0,0,0,0,0,0,0,0,0,0,0,0,0,0,0,0,0,0,0,0,0,0,0,0,0,0,0,0,0],"sum_hessian":[1.2501944E4,6.211616E3,6.2903276E3,2.3365642E3,3.875052E3,3.2610583E3,3.0292695E3,6.534282E2,1.683136E3,2.7074277E3,1.1676241E3,2.190003E3,1.0710553E3,1.9649814E3,1.0642881E3,1.8535733E2,4.6807092E2,1.2490657E3,4.3407025E2,1.3178115E3,1.3896162E3,3.248578E2,8.4276636E2,8.654636E2,1.3245393E3,9.980713E2,7.298403E1,8.860008E2,1.0789807E3,6.3154956E2,4.3273846E2],"tree_param":{"num_deleted":"0","num_feature":"7","num_nodes":"31","size_leaf_vector":"1"}},{"base_weights":[-1.5813991E-3,4.0251404E-1,-2.6510066E-1,7.0368636E-1,2.5397632E-1,-1.0616289E-1,-4.5621905E-1,9.3903357E-1,5.7091475E-1,1.7647599E-1,4.369124E-1,-1.7951462E-1,3.9712105E-2,-3.8766676E-1,-5.488532E-1,1.09643355E-1,8.6721815E-2,5.047822E-2,7.679271E-2,2.6759697E-2,5.224073E-3,6.1115105E-2,3.330834E-2,-1.2748568E-2,-3.236113E-2,2.0550681E-2,-5.0658532E-3,-3.4254003E-2,-4.7545146E-2,-4.9854554E-2,-5.888631E-2],"categories":[],"categories_nodes":[],"categories_segments":[],"categories_sizes":[],"default_left":[0,0,0,0,0,0,0,0,0,0,0,0,0,0,0,0,0,0,0,0,0,0,0,0,0,0,0,0,0,0,0],"id":11,"left_children":[1,3,5,7,9,11,13,15,17,19,21,23,25,27,29,-1,-1,-1,-1,-1,-1,-1,-1,-1,-1,-1,-1,-1,-1,-1,-1],"loss_changes":[1.0910923E3,1.8074841E2,1.8833932E2,4.1187927E1,3.834561E1,3.625196E1,1.766687E1,4.4755554E0,1.0768097E1,2.1554943E1,1.4373993E1,1.6858337E1,1.7003933E1,6.2606506E0,2.1118164E0,0E0,0E0,0E0,0E0,0E0,0E0,0E0,0E0,0E0,0E0,0E0,0E0,0E0,0E0,0E0,0E0],"parents":[2147483647,0,0,1,1,2,2,3,3,4,4,5,5,6,6,7,7,8,8,9,9,10,10,11,11,12,12,13,13,14,14],"right_children":[2,4,6,8,10,12,14,16,18,20,22,24,26,28,30,-1,-1,-1,-1,-1,-1,-1,-1,-1,-1,-1,-1,-1,-1,-1,-1],"split_conditions":[-5.8897118E1,-2.668098E2,1.3945232E2,-4.2595218E2,1E0,1E0,2.7944208E2,-6.0851904E2,1E0,-1.3300029E2,-1.7102858E2,8.240181E1,9.5314245E0,1E0,3.6265314E2,1.09643355E-1,8.6721815E-2,5.047822E-2,7.679271E-2,2.6759697E-2,5.224073E-3,6.1115105E-2,3.330834E-2,-1.2748568E-2,-3.236113E-2,2.0550681E-2,-5.0658532E-3,-3.4254003E-2,-4.7545146E-2,-4.9854554E-2,-5.888631E-2],"split_indices":[0,0,0,0,1,1,0,0,1,0,0,0,0,4,0,0,0,0,0,0,0,0,0,0,0,0,0,0,0,0,0],"split_type":[0,0,0,0,0,0,0,0,0,0,0,0,0,0,0,0,0,0,0,0,0,0,0,0,0,0,0,0,0,0,0],"sum_hessian":[1.0244254E4,4.043379E3,6.200875E3,1.3342802E3,2.7090986E3,3.3863098E3,2.8145652E3,4.7905258E2,8.552276E2,1.9043087E3,8.047899E2,2.2531208E3,1.133189E3,1.6205157E3,1.1940494E3,1.4562178E2,3.334308E2,6.429621E2,2.1226546E2,1.0978969E3,8.0641187E2,2.9867987E2,5.0611005E2,1.6567893E3,5.963316E2,3.9931973E2,7.3386926E2,1.0735482E3,5.469676E2,5.349163E2,6.591332E2],"tree_param":{"num_deleted":"0","num_feature":"7","num_nodes":"31","size_leaf_vector":"1"}},{"base_weights":[3.8798482E-3,4.1505337E-2,-3.033931E-1,-3.2623136E-1,5.8336485E-2,-2.3512477E-1,-4.4398698E-1,-5.470114E-2,-2.506827E-1,8.426954E-2,-6.2234562E-2,-2.671152E-1,-1.5842266E-1,-3.991218E-1,-5.2094716E-1,-1.8875185E-2,-4.7700666E-2,5.0544324E-3,1.4393948E-2,-9.006209E-3,2.9906075E-4,-2.3451557E-2,-3.4564506E-2,-2.065083E-2,-8.9917565E-3,-4.212724E-2,-2.9663876E-2,-5.333803E-2,-3.1687047E-2],"categories":[],"categories_nodes":[],"categories_segments":[],"categories_sizes":[],"default_left":[0,0,0,0,0,0,0,0,0,0,0,0,0,0,0,0,0,0,0,0,0,0,0,0,0,0,0,0,0],"id":12,"left_children":[1,3,5,7,9,11,13,-1,15,17,19,21,23,25,27,-1,-1,-1,-1,-1,-1,-1,-1,-1,-1,-1,-1,-1,-1],"loss_changes":[1.0404367E2,4.9642624E1,9.31855E0,5.7182198E0,2.3979555E1,1.5844688E0,8.96183E-1,0E0,3.6018124E0,1.2692093E1,2.4647593E0,1.1129341E0,6.323042E-1,3.433075E-1,1.2147331E-1,0E0,0E0,0E0,0E0,0E0,0E0,0E0,0E0,0E0,0E0,0E0,0E0,0E0,0E0],"parents":[2147483647,0,0,1,1,2,2,3,3,4,4,5,5,6,6,8,8,9,9,10,10,11,11,12,12,13,13,14,14],"right_children":[2,4,6,8,10,12,14,-1,16,18,20,22,24,26,28,-1,-1,-1,-1,-1,-1,-1,-1,-1,-1,-1,-1,-1,-1],"split_conditions":[2.8766275E2,-4.1368588E2,4.37443E2,-6.0851904E2,1.5483754E2,1E0,5.7769275E2,-5.470114E-2,1E0,1E0,1E0,3.7824905E2,3.5540955E2,1E0,1E0,-1.8875185E-2,-4.7700666E-2,5.0544324E-3,1.4393948E-2,-9.006209E-3,2.9906075E-4,-2.3451557E-2,-3.4564506E-2,-2.065083E-2,-8.9917565E-3,-4.212724E-2,-2.9663876E-2,-5.333803E-2,-3.1687047E-2],"split_indices":[0,0,0,0,0,2,0,0,1,2,1,0,0,1,3,0,0,0,0,0,0,0,0,0,0,0,0,0,0],"split_type":[0,0,0,0,0,0,0,0,0,0,0,0,0,0,0,0,0,0,0,0,0,0,0,0,0,0,0,0,0],"sum_hessian":[8.997221E3,8.016471E3,9.807497E2,3.5004755E2,7.6664233E3,6.619825E2,3.1876724E2,8.765322E1,2.6239432E2,6.3096187E3,1.3568049E3,4.653956E2,1.9658685E2,2.0528128E2,1.1348596E2,2.0745949E2,5.4934826E1,4.0323801E3,2.2772385E3,9.507838E2,4.0602115E2,3.3168958E2,1.3370604E2,1.143247E2,8.226216E1,1.6623972E2,3.904157E1,1.0544806E2,8.037905E0],"tree_param":{"num_deleted":"0","num_feature":"7","num_nodes":"29","size_leaf_vector":"1"}},{"base_weights":[-1.0126301E-3,-2.9093334E-1,2.8435302E-1,-4.9689934E-1,-1.6861857E-1,1.4639232E-1,4.9073258E-1,-6.525514E-1,-4.3707502E-1,-1.2611221E-1,-2.674726E-1,2.0218E-1,3.0654205E-2,4.1994897E-1,6.4014006E-1,-7.106186E-2,-6.0818285E-2,-4.0062286E-2,-5.4208346E-2,-1.9087944E-2,-5.8470517E-3,-4.099566E-2,-2.2985458E-2,1.1415502E-2,2.5607323E-2,-2.0494224E-3,2.6004756E-2,3.7238937E-2,4.8340186E-2,5.745842E-2,6.978733E-2],"categories":[],"categories_nodes":[],"categories_segments":[],"categories_sizes":[],"default_left":[0,0,0,0,0,0,0,0,0,0,0,0,0,0,0,0,0,0,0,0,0,0,0,0,0,0,0,0,0,0,0],"id":13,"left_children":[1,3,5,7,9,11,13,15,17,19,21,23,25,27,29,-1,-1,-1,-1,-1,-1,-1,-1,-1,-1,-1,-1,-1,-1,-1,-1],"loss_changes":[1.0265427E3,1.5497205E2,1.7796649E2,2.1064026E1,1.6198647E1,2.4201317E1,2.622168E1,1.2025452E0,6.133911E0,1.1832184E1,6.1271744E0,1.1971054E1,1.4326449E1,4.957947E0,2.6393738E0,0E0,0E0,0E0,0E0,0E0,0E0,0E0,0E0,0E0,0E0,0E0,0E0,0E0,0E0,0E0,0E0],"parents":[2147483647,0,0,1,1,2,2,3,3,4,4,5,5,6,6,7,7,8,8,9,9,10,10,11,11,12,12,13,13,14,14],"right_children":[2,4,6,8,10,12,14,16,18,20,22,24,26,28,30,-1,-1,-1,-1,-1,-1,-1,-1,-1,-1,-1,-1,-1,-1,-1,-1],"split_conditions":[2.2198818E1,-1.812143E2,2.1319771E2,-3.757749E2,1E0,1E0,3.7824905E2,-5.0699063E2,1E0,-6.644416E1,-1.2375641E2,8.915697E1,1.7157463E2,2.8766275E2,4.6417197E2,-7.106186E-2,-6.0818285E-2,-4.0062286E-2,-5.4208346E-2,-1.9087944E-2,-5.8470517E-3,-4.099566E-2,-2.2985458E-2,1.1415502E-2,2.5607323E-2,-2.0494224E-3,2.6004756E-2,3.7238937E-2,4.8340186E-2,5.745842E-2,6.978733E-2],"split_indices":[0,0,0,0,1,1,0,0,1,0,0,0,0,0,0,0,0,0,0,0,0,0,0,0,0,0,0,0,0,0,0],"split_type":[0,0,0,0,0,0,0,0,0,0,0,0,0,0,0,0,0,0,0,0,0,0,0,0,0,0,0,0,0,0,0],"sum_hessian":[1.2405838E4,6.1537954E3,6.252043E3,2.2917136E3,3.8620818E3,3.748172E3,2.5038708E3,6.335145E2,1.658199E3,2.7023645E3,1.1597173E3,2.5285986E3,1.2195734E3,1.7015513E3,8.023196E2,2.678936E2,3.6562097E2,1.2344814E3,4.2371762E2,1.3795844E3,1.3227802E3,2.4016348E2,9.1955383E2,9.6141583E2,1.5671829E3,9.979652E2,2.2160822E2,9.7650433E2,7.2504694E2,3.808353E2,4.2148428E2],"tree_param":{"num_deleted":"0","num_feature":"7","num_nodes":"31","size_leaf_vector":"1"}},{"base_weights":[-2.1955662E-3,3.6401063E-1,-2.5031367E-1,7.2213703E-1,2.621238E-1,-9.965685E-2,-4.373209E-1,9.062175E-1,6.0887414E-1,3.6666727E-1,1.3512006E-1,-1.6862375E-1,3.5372436E-2,-3.6954758E-1,-5.307121E-1,9.919267E-2,8.368214E-2,6.742657E-2,5.3821564E-2,2.8711408E-2,5.7412963E-2,6.62996E-3,2.8719231E-2,-1.2006502E-2,-3.0568078E-2,1.8664725E-2,-4.828173E-3,-3.2460265E-2,-4.5768913E-2,-4.7983833E-2,-5.7171315E-2],"categories":[],"categories_nodes":[],"categories_segments":[],"categories_sizes":[],"default_left":[0,0,0,0,0,0,0,0,0,0,0,0,0,0,0,0,0,0,0,0,0,0,0,0,0,0,0,0,0,0,0],"id":14,"left_children":[1,3,5,7,9,11,13,15,17,19,21,23,25,27,29,-1,-1,-1,-1,-1,-1,-1,-1,-1,-1,-1,-1,-1,-1,-1,-1],"loss_changes":[9.249586E2,1.4983215E2,1.7092365E2,1.842276E1,4.2470306E1,3.1315407E1,1.6939026E1,1.219635E0,2.2544098E0,2.881578E1,1.5129768E1,1.4775345E1,1.4403466E1,6.079193E0,2.09552E0,0E0,0E0,0E0,0E0,0E0,0E0,0E0,0E0,0E0,0E0,0E0,0E0,0E0,0E0,0E0,0E0],"parents":[2147483647,0,0,1,1,2,2,3,3,4,4,5,5,6,6,7,7,8,8,9,9,10,10,11,11,12,12,13,13,14,14],"right_children":[2,4,6,8,10,12,14,16,18,20,22,24,26,28,30,-1,-1,-1,-1,-1,-1,-1,-1,-1,-1,-1,-1,-1,-1,-1,-1],"split_conditions":[-5.8897118E1,-3.319652E2,1.3945232E2,-4.8681454E2,-1.5207506E2,1E0,2.7944208E2,-6.0851904E2,-3.866824E2,1E0,1E0,8.240181E1,9.5314245E0,1E0,3.6265314E2,9.919267E-2,8.368214E-2,6.742657E-2,5.3821564E-2,2.8711408E-2,5.7412963E-2,6.62996E-3,2.8719231E-2,-1.2006502E-2,-3.0568078E-2,1.8664725E-2,-4.828173E-3,-3.2460265E-2,-4.5768913E-2,-4.7983833E-2,-5.7171315E-2],"split_indices":[0,0,0,0,0,1,0,0,0,1,1,0,0,4,0,0,0,0,0,0,0,0,0,0,0,0,0,0,0,0,0],"split_type":[0,0,0,0,0,0,0,0,0,0,0,0,0,0,0,0,0,0,0,0,0,0,0,0,0,0,0,0,0,0,0],"sum_hessian":[1.0177771E4,4.1104897E3,6.067282E3,9.0907043E2,3.2014192E3,3.361069E3,2.7062131E3,3.436128E2,5.6545764E2,1.7549447E3,1.4464744E3,2.2245962E3,1.1364728E3,1.5710624E3,1.1351506E3,1.4778903E2,1.9582378E2,2.8923758E2,2.7622003E2,1.2702432E3,4.847015E2,9.968052E2,4.4966925E2,1.6440074E3,5.805888E2,4.0424E2,7.322327E2,1.0435966E3,5.274658E2,5.122532E2,6.228975E2],"tree_param":{"num_deleted":"0","num_feature":"7","num_nodes":"31","size_leaf_vector":"1"}},{"base_weights":[5.370859E-3,3.959378E-2,-2.8504524E-1,-2.776207E-1,5.6794137E-2,-2.1797764E-1,-4.2657205E-1,-4.3321767E-1,-1.6002978E-1,8.103868E-2,-5.2860674E-2,-2.498434E-1,-1.4218894E-1,-3.8043767E-1,-5.0666714E-1,-5.342723E-2,-3.389198E-2,-1.142827E-2,-3.4381717E-2,4.981946E-3,1.3570202E-2,-8.217237E-3,1.5102702E-3,-2.1796683E-2,-3.2756075E-2,-1.9024074E-2,-7.4186996E-3,-4.0319737E-2,-2.7633954E-2,-5.196578E-2,-2.9815039E-2],"categories":[],"categories_nodes":[],"categories_segments":[],"categories_sizes":[],"default_left":[0,0,0,0,0,0,0,0,0,0,0,0,0,0,0,0,0,0,0,0,0,0,0,0,0,0,0,0,0,0,0],"id":15,"left_children":[1,3,5,7,9,11,13,15,17,19,21,23,25,27,29,-1,-1,-1,-1,-1,-1,-1,-1,-1,-1,-1,-1,-1,-1,-1,-1],"loss_changes":[8.9202644E1,4.3822716E1,8.887695E0,7.489565E0,2.0253536E1,1.5197334E0,9.2746353E-1,1.5078888E0,1.952385E0,1.0638638E1,2.7498257E0,1.0484772E0,6.163409E-1,3.5384178E-1,1.3702965E-1,0E0,0E0,0E0,0E0,0E0,0E0,0E0,0E0,0E0,0E0,0E0,0E0,0E0,0E0,0E0,0E0],"parents":[2147483647,0,0,1,1,2,2,3,3,4,4,5,5,6,6,7,7,8,8,9,9,10,10,11,11,12,12,13,13,14,14],"right_children":[2,4,6,8,10,12,14,16,18,20,22,24,26,28,30,-1,-1,-1,-1,-1,-1,-1,-1,-1,-1,-1,-1,-1,-1,-1,-1],"split_conditions":[2.8766275E2,-3.866824E2,4.37443E2,-5.0699063E2,1.5238466E2,1E0,5.7769275E2,-6.0851904E2,1E0,1E0,1E0,3.7824905E2,3.5540955E2,1E0,1E0,-5.342723E-2,-3.389198E-2,-1.142827E-2,-3.4381717E-2,4.981946E-3,1.3570202E-2,-8.217237E-3,1.5102702E-3,-2.1796683E-2,-3.2756075E-2,-1.9024074E-2,-7.4186996E-3,-4.0319737E-2,-2.7633954E-2,-5.196578E-2,-2.9815039E-2],"split_indices":[0,0,0,0,0,2,0,0,1,2,1,0,0,1,3,0,0,0,0,0,0,0,0,0,0,0,0,0,0,0,0],"split_type":[0,0,0,0,0,0,0,0,0,0,0,0,0,0,0,0,0,0,0,0,0,0,0,0,0,0,0,0,0,0,0],"sum_hessian":[8.972979E3,8.0278345E3,9.451443E2,4.121265E2,7.615708E3,6.429835E2,3.0216077E2,1.7624025E2,2.3588623E2,6.2369805E3,1.3787278E3,4.5104333E2,1.919402E2,1.953753E2,1.0678547E2,8.282007E1,9.342019E1,1.901718E2,4.571443E1,3.9709883E3,2.2659922E3,9.6313257E2,4.1559515E2,3.225505E2,1.2849284E2,1.1141448E2,8.052572E1,1.5796506E2,3.7410244E1,9.91182E1,7.6672683E0],"tree_param":{"num_deleted":"0","num_feature":"7","num_nodes":"31","size_leaf_vector":"1"}},{"base_weights":[-1.6037652E-3,-2.7067432E-1,2.6250803E-1,-4.664998E-1,-1.5643962E-1,1.3464873E-1,4.5657554E-1,-6.1929965E-1,-4.089082E-1,-2.3118591E-1,-1.088402E-1,1.8674625E-1,2.6726682E-2,3.8920656E-1,6.011319E-1,-6.995873E-2,-5.867302E-2,-3.7440903E-2,-5.096158E-2,-1.9187646E-2,-3.2990225E-2,-6.8591833E-3,-1.9856656E-2,2.402364E-2,1.1150294E-2,-2.050905E-3,2.3921298E-2,4.2062815E-2,3.0132875E-2,5.3603347E-2,6.590908E-2],"categories":[],"categories_nodes":[],"categories_segments":[],"categories_sizes":[],"default_left":[0,0,0,0,0,0,0,0,0,0,0,0,0,0,0,0,0,0,0,0,0,0,0,0,0,0,0,0,0,0,0],"id":16,"left_children":[1,3,5,7,9,11,13,15,17,19,21,23,25,27,29,-1,-1,-1,-1,-1,-1,-1,-1,-1,-1,-1,-1,-1,-1,-1,-1],"loss_changes":[8.740083E2,1.3620978E2,1.5394446E2,1.9494171E1,1.3669701E1,2.1039558E1,2.376825E1,1.1907043E0,5.48172E0,5.744438E0,8.485706E0,1.0132484E1,1.2247508E1,4.5231934E0,2.5959167E0,0E0,0E0,0E0,0E0,0E0,0E0,0E0,0E0,0E0,0E0,0E0,0E0,0E0,0E0,0E0,0E0],"parents":[2147483647,0,0,1,1,2,2,3,3,4,4,5,5,6,6,7,7,8,8,9,9,10,10,11,11,12,12,13,13,14,14],"right_children":[2,4,6,8,10,12,14,16,18,20,22,24,26,28,30,-1,-1,-1,-1,-1,-1,-1,-1,-1,-1,-1,-1,-1,-1,-1,-1],"split_conditions":[2.2198818E1,-1.812143E2,2.1319771E2,-3.757749E2,-8.952883E1,1E0,3.7824905E2,-5.672506E2,1E0,1E0,1E0,1E0,1.7157463E2,1E0,4.6417197E2,-6.995873E-2,-5.867302E-2,-3.7440903E-2,-5.096158E-2,-1.9187646E-2,-3.2990225E-2,-6.8591833E-3,-1.9856656E-2,2.402364E-2,1.1150294E-2,-2.050905E-3,2.3921298E-2,4.2062815E-2,3.0132875E-2,5.3603347E-2,6.590908E-2],"split_indices":[0,0,0,0,0,1,0,0,1,1,1,2,0,1,0,0,0,0,0,0,0,0,0,0,0,0,0,0,0,0,0],"split_type":[0,0,0,0,0,0,0,0,0,0,0,0,0,0,0,0,0,0,0,0,0,0,0,0,0,0,0,0,0,0,0],"sum_hessian":[1.2296767E4,6.0911895E3,6.2055776E3,2.243026E3,3.8481636E3,3.741936E3,2.4636414E3,6.1132587E2,1.6317E3,1.4956531E3,2.3525105E3,2.5231824E3,1.2187538E3,1.6829927E3,7.806486E2,1.7051251E2,4.4081332E2,1.2188715E3,4.128285E2,1.0717996E3,4.2385358E2,1.625243E3,7.2726746E2,1.4734911E3,1.0496912E3,9.978378E2,2.20916E2,1.2369297E3,4.46063E2,3.725053E2,4.081433E2],"tree_param":{"num_deleted":"0","num_feature":"7","num_nodes":"31","size_leaf_vector":"1"}},{"base_weights":[-2.8188676E-3,2.6358762E-1,-2.9710847E-1,5.232171E-1,1.2495911E-1,-1.6524927E-1,-4.3404385E-1,7.4130017E-1,4.2026156E-1,6.1351284E-2,2.6340345E-1,-2.215742E-1,-5.6025505E-2,-3.665126E-1,-5.13559E-1,8.44578E-2,6.342426E-2,3.5322122E-2,6.0549613E-2,1.8245809E-2,-1.4319405E-3,4.1538257E-2,2.0688958E-2,-1.6417876E-2,-2.8980037E-2,2.0875835E-3,-1.28496215E-2,-4.0354576E-2,-2.679553E-2,-4.6179086E-2,-5.558738E-2],"categories":[],"categories_nodes":[],"categories_segments":[],"categories_sizes":[],"default_left":[0,0,0,0,0,0,0,0,0,0,0,0,0,0,0,0,0,0,0,0,0,0,0,0,0,0,0,0,0,0,0],"id":17,"left_children":[1,3,5,7,9,11,13,15,17,19,21,23,25,27,29,-1,-1,-1,-1,-1,-1,-1,-1,-1,-1,-1,-1,-1,-1,-1,-1],"loss_changes":[7.920535E2,1.9078326E2,8.660007E1,4.1123627E1,3.043634E1,1.5041565E1,1.245285E1,5.993408E0,1.5382324E1,2.1728823E1,9.261696E0,6.273079E0,4.6500025E0,4.5508575E0,2.1061096E0,0E0,0E0,0E0,0E0,0E0,0E0,0E0,0E0,0E0,0E0,0E0,0E0,0E0,0E0,0E0,0E0],"parents":[2147483647,0,0,1,1,2,2,3,3,4,4,5,5,6,6,7,7,8,8,9,9,10,10,11,11,12,12,13,13,14,14],"right_children":[2,4,6,8,10,12,14,16,18,20,22,24,26,28,30,-1,-1,-1,-1,-1,-1,-1,-1,-1,-1,-1,-1,-1,-1,-1,-1],"split_conditions":[5.0172415E0,-2.1950603E2,1.5757893E2,-4.0001135E2,1E0,1E0,2.7944208E2,-5.0699063E2,1E0,-1.21061806E2,-1.386189E2,8.240181E1,7.448826E1,1E0,3.6265314E2,8.44578E-2,6.342426E-2,3.5322122E-2,6.0549613E-2,1.8245809E-2,-1.4319405E-3,4.1538257E-2,2.0688958E-2,-1.6417876E-2,-2.8980037E-2,2.0875835E-3,-1.28496215E-2,-4.0354576E-2,-2.679553E-2,-4.6179086E-2,-5.558738E-2],"split_indices":[0,0,0,0,1,1,0,0,1,0,0,0,0,3,0,0,0,0,0,0,0,0,0,0,0,0,0,0,0,0,0],"split_type":[0,0,0,0,0,0,0,0,0,0,0,0,0,0,0,0,0,0,0,0,0,0,0,0,0,0,0,0,0,0,0],"sum_hessian":[1.010064E4,5.301524E3,4.799115E3,1.8444271E3,3.457097E3,2.4459976E3,2.3531177E3,5.8951044E2,1.2549166E3,2.3697607E3,1.0873362E3,1.6131128E3,8.328848E2,1.2754779E3,1.0776396E3,2.9654562E2,2.9296484E2,9.2356537E2,3.3135123E2,9.107477E2,1.4590131E3,2.930108E2,7.943254E2,8.7794543E2,7.3516736E2,4.0443546E2,4.2844937E2,9.248633E2,3.5061462E2,4.900384E2,5.876013E2],"tree_param":{"num_deleted":"0","num_feature":"7","num_nodes":"31","size_leaf_vector":"1"}},{"base_weights":[6.8894895E-3,3.810541E-2,-2.6775512E-1,-3.9388317E-1,4.9128845E-2,-2.068946E-1,-4.199488E-1,-5.22497E-2,-3.068968E-1,6.573699E-2,-6.6249E-2,-2.3783287E-1,-1.3287917E-1,-3.710126E-1,-4.9286804E-1,-3.4214016E-2,-1.2574324E-2,3.2790478E-3,1.2392278E-2,-9.432702E-3,4.015876E-4,-2.0361964E-2,-3.1047184E-2,-1.7602922E-2,-7.6354444E-3,-3.870475E-2,-2.940846E-2,-5.0648034E-2,-2.795875E-2],"categories":[],"categories_nodes":[],"categories_segments":[],"categories_sizes":[],"default_left":[0,0,0,0,0,0,0,0,0,0,0,0,0,0,0,0,0,0,0,0,0,0,0,0,0,0,0,0,0],"id":18,"left_children":[1,3,5,7,9,11,13,-1,15,17,19,21,23,25,27,-1,-1,-1,-1,-1,-1,-1,-1,-1,-1,-1,-1,-1,-1],"loss_changes":[7.672889E1,3.8287567E1,8.373657E0,2.0780087E0,1.5021881E1,1.4670506E0,7.4474716E-1,0E0,7.3444843E-1,1.313026E1,1.9469585E0,1.0806541E0,4.62631E-1,8.304596E-2,1.5263557E-1,0E0,0E0,0E0,0E0,0E0,0E0,0E0,0E0,0E0,0E0,0E0,0E0,0E0,0E0],"parents":[2147483647,0,0,1,1,2,2,3,3,4,4,5,5,6,6,8,8,9,9,10,10,11,11,12,12,13,13,14,14],"right_children":[2,4,6,8,10,12,14,-1,16,18,20,22,24,26,28,-1,-1,-1,-1,-1,-1,-1,-1,-1,-1,-1,-1,-1,-1],"split_conditions":[2.8766275E2,-4.8681454E2,4.5065588E2,-6.0851904E2,1.8346706E2,1E0,5.7769275E2,-5.22497E-2,1E0,1E0,1E0,3.7824905E2,3.5540955E2,1E0,1E0,-3.4214016E-2,-1.2574324E-2,3.2790478E-3,1.2392278E-2,-9.432702E-3,4.015876E-4,-2.0361964E-2,-3.1047184E-2,-1.7602922E-2,-7.6354444E-3,-3.870475E-2,-2.940846E-2,-5.0648034E-2,-2.795875E-2],"split_indices":[0,0,0,0,0,2,0,0,2,2,1,0,0,1,3,0,0,0,0,0,0,0,0,0,0,0,0,0,0],"split_type":[0,0,0,0,0,0,0,0,0,0,0,0,0,0,0,0,0,0,0,0,0,0,0,0,0,0,0,0,0],"sum_hessian":[8.947576E3,8.0351665E3,9.124103E2,1.9907428E2,7.836092E3,6.53459E2,2.5895132E2,7.8298805E1,1.20775475E2,6.850432E3,9.856599E2,4.5927136E2,1.941876E2,1.5860158E2,1.0034975E2,1.003615E2,2.0413967E1,4.374835E3,2.4755972E3,7.0399805E2,2.8166183E2,3.1480167E2,1.444697E2,1.0892322E2,8.526438E1,1.27908905E2,3.0692675E1,9.303709E1,7.312663E0],"tree_param":{"num_deleted":"0","num_feature":"7","num_nodes":"29","size_leaf_vector":"1"}},{"base_weights":[-2.2258894E-3,-2.623919E-1,2.3278616E-1,-4.3872485E-1,-1.5458855E-1,9.57029E-2,3.976965E-1,-5.8292896E-1,-3.7975398E-1,-1.1717854E-1,-2.4292117E-1,1.4429955E-1,-3.8829984E-3,3.2503867E-1,5.3803515E-1,-6.416556E-2,-5.3283658E-2,-3.466026E-2,-4.7683414E-2,-1.7693615E-2,-7.072841E-3,-3.8526192E-2,-2.151719E-2,7.635247E-3,1.9765962E-2,-9.222787E-3,5.2983807E-3,2.834594E-2,3.9250996E-2,4.7960617E-2,6.249984E-2],"categories":[],"categories_nodes":[],"categories_segments":[],"categories_sizes":[],"default_left":[0,0,0,0,0,0,0,0,0,0,0,0,0,0,0,0,0,0,0,0,0,0,0,0,0,0,0,0,0,0,0],"id":19,"left_children":[1,3,5,7,9,11,13,15,17,19,21,23,25,27,29,-1,-1,-1,-1,-1,-1,-1,-1,-1,-1,-1,-1,-1,-1,-1,-1],"loss_changes":[7.4483636E2,1.09836426E2,1.446531E2,1.8427917E1,1.1833351E1,1.692162E1,2.9446716E1,1.5250854E0,4.853348E0,6.9922485E0,4.1316376E0,8.504452E0,5.770447E0,5.2655334E0,4.7277527E0,0E0,0E0,0E0,0E0,0E0,0E0,0E0,0E0,0E0,0E0,0E0,0E0,0E0,0E0,0E0,0E0],"parents":[2147483647,0,0,1,1,2,2,3,3,4,4,5,5,6,6,7,7,8,8,9,9,10,10,11,11,12,12,13,13,14,14],"right_children":[2,4,6,8,10,12,14,16,18,20,22,24,26,28,30,-1,-1,-1,-1,-1,-1,-1,-1,-1,-1,-1,-1,-1,-1,-1,-1],"split_conditions":[1.1809239E1,-1.812143E2,1.8346706E2,-3.6524573E2,1E0,1E0,3.408849E2,-4.8681454E2,1E0,-8.678972E1,-1.3550842E2,8.240181E1,7.448826E1,1E0,4.6417197E2,-6.416556E-2,-5.3283658E-2,-3.466026E-2,-4.7683414E-2,-1.7693615E-2,-7.072841E-3,-3.8526192E-2,-2.151719E-2,7.635247E-3,1.9765962E-2,-9.222787E-3,5.2983807E-3,2.834594E-2,3.9250996E-2,4.7960617E-2,6.249984E-2],"split_indices":[0,0,0,0,1,1,0,0,1,0,0,0,0,4,0,0,0,0,0,0,0,0,0,0,0,0,0,0,0,0,0],"split_type":[0,0,0,0,0,0,0,0,0,0,0,0,0,0,0,0,0,0,0,0,0,0,0,0,0,0,0,0,0,0,0],"sum_hessian":[1.2180047E4,5.7806084E3,6.399438E3,2.1920396E3,3.5885688E3,3.4954185E3,2.9040195E3,6.3365326E2,1.5583862E3,2.5225588E3,1.0660099E3,2.34879E3,1.1466285E3,1.9155792E3,9.8844037E2,2.8625186E2,3.474014E2,1.1650952E3,3.9329108E2,1.1020167E3,1.4205421E3,1.7181195E2,8.94198E2,1.0342449E3,1.314545E3,4.4879135E2,6.978372E2,1.1884166E3,7.271626E2,5.951112E2,3.9332913E2],"tree_param":{"num_deleted":"0","num_feature":"7","num_nodes":"31","size_leaf_vector":"1"}},{"base_weights":[-3.447709E-3,2.3998621E-1,-2.8167334E-1,4.9635518E-1,1.2271097E-1,-1.5483828E-1,-4.1707066E-1,7.0682675E-1,4.08275E-1,2.440446E-1,6.1445657E-2,-2.0792015E-1,-5.3511832E-2,-3.499365E-1,-4.9773026E-1,8.4735915E-2,6.453531E-2,3.4001045E-2,6.0074132E-2,1.9455904E-2,3.687626E-2,-9.950101E-5,1.88443E-2,-1.5391099E-2,-2.7625872E-2,-2.5970836E-3,-2.4720296E-2,-3.8714346E-2,-2.5175393E-2,-4.4540923E-2,-5.4123204E-2],"categories":[],"categories_nodes":[],"categories_segments":[],"categories_sizes":[],"default_left":[0,0,0,0,0,0,0,0,0,0,0,0,0,0,0,0,0,0,0,0,0,0,0,0,0,0,0,0,0,0,0],"id":20,"left_children":[1,3,5,7,9,11,13,15,17,19,21,23,25,27,29,-1,-1,-1,-1,-1,-1,-1,-1,-1,-1,-1,-1,-1,-1,-1,-1],"loss_changes":[6.78548E2,1.6059052E2,8.022235E1,3.0796204E1,2.7247974E1,1.29808235E1,1.2067352E1,3.7150116E0,1.5357864E1,7.5207214E0,1.9335918E1,5.806679E0,4.430423E0,4.4218903E0,2.090805E0,0E0,0E0,0E0,0E0,0E0,0E0,0E0,0E0,0E0,0E0,0E0,0E0,0E0,0E0,0E0,0E0],"parents":[2147483647,0,0,1,1,2,2,3,3,4,4,5,5,6,6,7,7,8,8,9,9,10,10,11,11,12,12,13,13,14,14],"right_children":[2,4,6,8,10,12,14,16,18,20,22,24,26,28,30,-1,-1,-1,-1,-1,-1,-1,-1,-1,-1,-1,-1,-1,-1,-1,-1],"split_conditions":[5.0172415E0,-2.3694818E2,1.5757893E2,-4.2595218E2,-1.386189E2,1E0,2.7944208E2,-6.0851904E2,1E0,1E0,1E0,8.473565E1,1.3430078E2,1E0,3.6265314E2,8.4735915E-2,6.453531E-2,3.4001045E-2,6.0074132E-2,1.9455904E-2,3.687626E-2,-9.950101E-5,1.88443E-2,-1.5391099E-2,-2.7625872E-2,-2.5970836E-3,-2.4720296E-2,-3.8714346E-2,-2.5175393E-2,-4.4540923E-2,-5.4123204E-2],"split_indices":[0,0,0,0,0,1,0,0,1,1,1,0,0,3,0,0,0,0,0,0,0,0,0,0,0,0,0,0,0,0,0],"split_type":[0,0,0,0,0,0,0,0,0,0,0,0,0,0,0,0,0,0,0,0,0,0,0,0,0,0,0,0,0,0,0],"sum_hessian":[1.0016492E4,5.342341E3,4.6741514E3,1.6757793E3,3.6665618E3,2.4144912E3,2.2596604E3,4.9232407E2,1.1834552E3,1.2291982E3,2.4373635E3,1.5837568E3,8.3073444E2,1.2361407E3,1.02351953E3,1.4593166E2,3.463924E2,8.7564526E2,3.0781E2,8.8185583E2,3.4734238E2,1.6346492E3,8.027143E2,8.8644E2,6.9731683E2,7.2830994E2,1.02424515E2,8.9429755E2,3.418432E2,4.697611E2,5.537584E2],"tree_param":{"num_deleted":"0","num_feature":"7","num_nodes":"31","size_leaf_vector":"1"}},{"base_weights":[8.408481E-3,3.6834296E-2,-2.5072384E-1,-2.51317E-1,5.1613998E-2,-1.9150586E-1,-4.032084E-1,-4.0200618E-1,-1.4521286E-1,7.116233E-2,-3.913733E-2,-2.2197008E-1,-1.19320415E-1,-3.5268682E-1,-4.7944573E-1,-5.1018745E-2,-3.0581642E-2,-1.0122926E-2,-3.2529954E-2,4.404009E-3,1.1819604E-2,-1.0053712E-3,-9.477164E-3,-1.887352E-2,-2.9345518E-2,-1.638837E-2,-6.1018476E-3,-3.4125764E-2,-5.1406264E-2,-4.937402E-2,-2.611852E-2],"categories":[],"categories_nodes":[],"categories_segments":[],"categories_sizes":[],"default_left":[0,0,0,0,0,0,0,0,0,0,0,0,0,0,0,0,0,0,0,0,0,0,0,0,0,0,0,0,0,0,0],"id":21,"left_children":[1,3,5,7,9,11,13,15,17,19,21,23,25,27,29,-1,-1,-1,-1,-1,-1,-1,-1,-1,-1,-1,-1,-1,-1,-1,-1],"loss_changes":[6.5734924E1,3.426055E1,7.888603E0,6.217415E0,1.357436E1,1.3750038E0,7.778549E-1,1.5257454E0,1.8038902E0,8.024616E0,2.1938772E0,1.0066166E0,4.870274E-1,1.0427666E-1,1.6808319E-1,0E0,0E0,0E0,0E0,0E0,0E0,0E0,0E0,0E0,0E0,0E0,0E0,0E0,0E0,0E0,0E0],"parents":[2147483647,0,0,1,1,2,2,3,3,4,4,5,5,6,6,7,7,8,8,9,9,10,10,11,11,12,12,13,13,14,14],"right_children":[2,4,6,8,10,12,14,16,18,20,22,24,26,28,30,-1,-1,-1,-1,-1,-1,-1,-1,-1,-1,-1,-1,-1,-1,-1,-1],"split_conditions":[2.8766275E2,-3.866824E2,4.5065588E2,-5.0699063E2,1.5238466E2,1E0,5.7769275E2,-6.0851904E2,1E0,1E0,1E0,3.7824905E2,3.5540955E2,1E0,1E0,-5.1018745E-2,-3.0581642E-2,-1.0122926E-2,-3.2529954E-2,4.404009E-3,1.1819604E-2,-1.0053712E-3,-9.477164E-3,-1.887352E-2,-2.9345518E-2,-1.638837E-2,-6.1018476E-3,-3.4125764E-2,-5.1406264E-2,-4.937402E-2,-2.611852E-2],"split_indices":[0,0,0,0,0,2,0,0,1,2,4,0,0,5,3,0,0,0,0,0,0,0,0,0,0,0,0,0,0,0,0],"split_type":[0,0,0,0,0,0,0,0,0,0,0,0,0,0,0,0,0,0,0,0,0,0,0,0,0,0,0,0,0,0,0],"sum_hessian":[8.92179E3,8.040622E3,8.811673E2,3.915131E2,7.6491094E3,6.363098E2,2.4485753E2,1.6061656E2,2.3089655E2,6.2936406E3,1.3554686E3,4.4600757E2,1.9030222E2,1.5064986E2,9.420768E1,7.357048E1,8.704608E1,1.8682846E2,4.4068085E1,3.992995E3,2.3006455E3,8.909123E2,4.6455627E2,3.069435E2,1.3906406E2,1.0683308E2,8.346915E1,1.4359467E2,7.0551815E0,8.723243E1,6.975245E0],"tree_param":{"num_deleted":"0","num_feature":"7","num_nodes":"31","size_leaf_vector":"1"}},{"base_weights":[-2.880905E-3,-2.2946523E-1,2.2938798E-1,-4.1314912E-1,-1.3023244E-1,1.3251537E-1,4.2229167E-1,-5.6407374E-1,-3.58702E-1,-1.5841323E-1,-2.4511011E-2,8.258028E-2,2.2872545E-1,3.6505482E-1,5.544295E-1,-6.488031E-2,-5.3079486E-2,-3.275825E-2,-4.5233782E-2,-1.2490972E-2,-2.3884235E-2,5.3512864E-4,-8.934703E-3,1.3320661E-2,-2.158954E-3,1.759212E-2,3.3338197E-2,3.9222937E-2,2.8784141E-2,5.121041E-2,6.305397E-2],"categories":[],"categories_nodes":[],"categories_segments":[],"categories_sizes":[],"default_left":[0,0,0,0,0,0,0,0,0,0,0,0,0,0,0,0,0,0,0,0,0,0,0,0,0,0,0,0,0,0,0],"id":22,"left_children":[1,3,5,7,9,11,13,15,17,19,21,23,25,27,29,-1,-1,-1,-1,-1,-1,-1,-1,-1,-1,-1,-1,-1,-1,-1,-1],"loss_changes":[6.346831E2,1.1121646E2,1.1122836E2,1.7388672E1,1.1808609E1,1.903379E1,1.4850983E1,1.2509613E0,4.443878E0,8.405037E0,1.618355E0,1.3779551E1,7.4265823E0,2.8072357E0,1.6087646E0,0E0,0E0,0E0,0E0,0E0,0E0,0E0,0E0,0E0,0E0,0E0,0E0,0E0,0E0,0E0,0E0],"parents":[2147483647,0,0,1,1,2,2,3,3,4,4,5,5,6,6,7,7,8,8,9,9,10,10,11,11,12,12,13,13,14,14],"right_children":[2,4,6,8,10,12,14,16,18,20,22,24,26,28,30,-1,-1,-1,-1,-1,-1,-1,-1,-1,-1,-1,-1,-1,-1,-1,-1],"split_conditions":[2.919292E1,-1.812143E2,2.4007841E2,-3.757749E2,-8.774827E0,1.5483754E2,4.037039E2,-5.672506E2,1E0,1E0,1E0,1E0,1E0,1E0,5.423964E2,-6.488031E-2,-5.3079486E-2,-3.275825E-2,-4.5233782E-2,-1.2490972E-2,-2.3884235E-2,5.3512864E-4,-8.934703E-3,1.3320661E-2,-2.158954E-3,1.759212E-2,3.3338197E-2,3.9222937E-2,2.8784141E-2,5.121041E-2,6.305397E-2],"split_indices":[0,0,0,0,0,0,0,0,1,1,1,1,4,1,0,0,0,0,0,0,0,0,0,0,0,0,0,0,0,0,0],"split_type":[0,0,0,0,0,0,0,0,0,0,0,0,0,0,0,0,0,0,0,0,0,0,0,0,0,0,0,0,0,0,0],"sum_hessian":[1.2057687E4,6.1035386E3,5.954148E3,2.1397014E3,3.9638372E3,3.964791E3,1.9893569E3,5.647855E2,1.574916E3,3.1292227E3,8.3461444E2,2.6113188E3,1.3534723E3,1.3907166E3,5.986404E2,1.5405605E2,4.1072946E2,1.1854387E3,3.8947723E2,2.2108328E3,9.1839E2,5.720541E2,2.6256033E2,1.7570955E3,8.542234E2,9.0136914E2,4.5210312E2,1.025664E3,3.6505264E2,3.8967062E2,2.0896976E2],"tree_param":{"num_deleted":"0","num_feature":"7","num_nodes":"31","size_leaf_vector":"1"}},{"base_weights":[-4.057546E-3,2.1877772E-1,-2.669198E-1,4.545869E-1,1.11001015E-1,-1.453015E-1,-4.0052405E-1,7.091092E-1,3.8991916E-1,2.2149535E-1,5.489238E-2,-1.9553614E-1,-5.0748486E-2,-3.3352047E-1,-4.8267192E-1,7.9358324E-2,6.440541E-2,3.2729264E-2,5.7424545E-2,2.7036784E-2,1.1262444E-2,-3.0267573E-4,1.7179964E-2,-1.4444458E-2,-2.6104838E-2,-2.4784377E-3,-2.3587167E-2,-3.7064224E-2,-2.3662359E-2,-4.297677E-2,-5.2747615E-2],"categories":[],"categories_nodes":[],"categories_segments":[],"categories_sizes":[],"default_left":[0,0,0,0,0,0,0,0,0,0,0,0,0,0,0,0,0,0,0,0,0,0,0,0,0,0,0,0,0,0,0],"id":23,"left_children":[1,3,5,7,9,11,13,15,17,19,21,23,25,27,29,-1,-1,-1,-1,-1,-1,-1,-1,-1,-1,-1,-1,-1,-1,-1,-1],"loss_changes":[5.8164716E2,1.3653238E2,7.396774E1,2.7465057E1,2.2862862E1,1.1325306E1,1.1785095E1,1.3587189E0,1.5352234E1,6.579521E0,1.6579142E1,5.177475E0,3.9804115E0,4.223648E0,2.079071E0,0E0,0E0,0E0,0E0,0E0,0E0,0E0,0E0,0E0,0E0,0E0,0E0,0E0,0E0,0E0,0E0],"parents":[2147483647,0,0,1,1,2,2,3,3,4,4,5,5,6,6,7,7,8,8,9,9,10,10,11,11,12,12,13,13,14,14],"right_children":[2,4,6,8,10,12,14,16,18,20,22,24,26,28,30,-1,-1,-1,-1,-1,-1,-1,-1,-1,-1,-1,-1,-1,-1,-1,-1],"split_conditions":[5.0172415E0,-2.3694818E2,1.5757893E2,-4.8681454E2,-1.386189E2,1E0,2.7944208E2,-6.0851904E2,1E0,1E0,1E0,8.473565E1,1.3430078E2,1E0,3.6265314E2,7.9358324E-2,6.440541E-2,3.2729264E-2,5.7424545E-2,2.7036784E-2,1.1262444E-2,-3.0267573E-4,1.7179964E-2,-1.4444458E-2,-2.6104838E-2,-2.4784377E-3,-2.3587167E-2,-3.7064224E-2,-2.3662359E-2,-4.297677E-2,-5.2747615E-2],"split_indices":[0,0,0,0,0,1,0,0,1,2,1,0,0,3,0,0,0,0,0,0,0,0,0,0,0,0,0,0,0,0,0],"split_type":[0,0,0,0,0,0,0,0,0,0,0,0,0,0,0,0,0,0,0,0,0,0,0,0,0,0,0,0,0,0,0],"sum_hessian":[9.927962E3,5.3731597E3,4.554802E3,1.6844541E3,3.6887056E3,2.3854465E3,2.169355E3,3.3925064E2,1.3452035E3,1.2412915E3,2.447414E3,1.5571094E3,8.283372E2,1.1975986E3,9.717564E2,1.4272433E2,1.9652632E2,1.0061356E3,3.3906787E2,8.5568744E2,3.8560406E2,1.6372491E3,8.1016504E2,8.7664124E2,6.804681E2,7.274447E2,1.00892525E2,8.6383356E2,3.337651E2,4.5045578E2,5.213006E2],"tree_param":{"num_deleted":"0","num_feature":"7","num_nodes":"31","size_leaf_vector":"1"}},{"base_weights":[9.830495E-3,3.56614E-2,-2.339643E-1,-2.3741582E-1,4.9265966E-2,-1.7633326E-1,-3.8676494E-1,-4.982104E-2,-1.7830622E-1,6.65365E-2,-3.1965E-2,-2.0659581E-1,-1.0520176E-1,-3.3526048E-1,-4.6585488E-1,-1.2540056E-2,-3.8434178E-2,4.1257176E-3,1.101897E-2,-5.686424E-3,2.4500254E-3,-1.744359E-2,-2.7670804E-2,-1.4977554E-2,-4.722092E-3,-3.2349534E-2,-5.0378896E-2,-4.8092406E-2,-2.4211444E-2],"categories":[],"categories_nodes":[],"categories_segments":[],"categories_sizes":[],"default_left":[0,0,0,0,0,0,0,0,0,0,0,0,0,0,0,0,0,0,0,0,0,0,0,0,0,0,0,0,0],"id":24,"left_children":[1,3,5,7,9,11,13,-1,15,17,19,21,23,25,27,-1,-1,-1,-1,-1,-1,-1,-1,-1,-1,-1,-1,-1,-1],"loss_changes":[5.6038246E1,2.9902397E1,7.4390907E0,5.799635E0,1.0755022E1,1.3147678E0,7.914772E-1,0E0,3.363224E0,6.971039E0,1.8917631E0,9.315071E-1,4.7711015E-1,1.2345314E-1,1.8424988E-1,0E0,0E0,0E0,0E0,0E0,0E0,0E0,0E0,0E0,0E0,0E0,0E0,0E0,0E0],"parents":[2147483647,0,0,1,1,2,2,3,3,4,4,5,5,6,6,8,8,9,9,10,10,11,11,12,12,13,13,14,14],"right_children":[2,4,6,8,10,12,14,-1,16,18,20,22,24,26,28,-1,-1,-1,-1,-1,-1,-1,-1,-1,-1,-1,-1,-1,-1],"split_conditions":[2.8766275E2,-3.866824E2,4.5065588E2,-6.0851904E2,1.5238466E2,1E0,5.7769275E2,-4.982104E-2,1E0,1E0,1E0,3.7824905E2,3.5540955E2,1E0,1E0,-1.2540056E-2,-3.8434178E-2,4.1257176E-3,1.101897E-2,-5.686424E-3,2.4500254E-3,-1.744359E-2,-2.7670804E-2,-1.4977554E-2,-4.722092E-3,-3.2349534E-2,-5.0378896E-2,-4.8092406E-2,-2.4211444E-2],"split_indices":[0,0,0,0,0,2,0,0,1,2,1,0,0,5,3,0,0,0,0,0,0,0,0,0,0,0,0,0,0],"split_type":[0,0,0,0,0,0,0,0,0,0,0,0,0,0,0,0,0,0,0,0,0,0,0,0,0,0,0,0,0],"sum_hessian":[8.896251E3,8.044737E3,8.5151404E2,3.809846E2,7.663752E3,6.198736E2,2.3164049E2,6.9023E1,3.119616E2,6.320195E3,1.3435573E3,4.3352722E2,1.8634636E2,1.4345773E2,8.8182755E1,2.4950302E2,6.2458576E1,4.0036487E3,2.3165461E3,9.323956E2,4.1116165E2,2.995939E2,1.3393332E2,1.0445872E2,8.188765E1,1.3682535E2,6.632382E0,8.1541374E1,6.641377E0],"tree_param":{"num_deleted":"0","num_feature":"7","num_nodes":"29","size_leaf_vector":"1"}},{"base_weights":[-3.491177E-3,-2.2801174E-1,1.9830085E-1,-3.8954067E-1,-1.3322373E-1,9.719105E-2,3.708056E-1,-5.3360945E-1,-3.331195E-1,-1.01206034E-1,-2.097144E-1,1.5395852E-2,1.4318179E-1,3.1122378E-1,5.06853E-1,-5.9460577E-2,-4.835494E-2,-3.0273525E-2,-4.2487647E-2,-1.4744687E-2,-5.1896437E-3,-3.446633E-2,-1.8382676E-2,6.1791367E-3,-7.96952E-3,1.0278802E-2,2.337323E-2,3.4008697E-2,2.3148257E-2,4.4150617E-2,5.6753285E-2],"categories":[],"categories_nodes":[],"categories_segments":[],"categories_sizes":[],"default_left":[0,0,0,0,0,0,0,0,0,0,0,0,0,0,0,0,0,0,0,0,0,0,0,0,0,0,0,0,0,0,0],"id":25,"left_children":[1,3,5,7,9,11,13,15,17,19,21,23,25,27,29,-1,-1,-1,-1,-1,-1,-1,-1,-1,-1,-1,-1,-1,-1,-1,-1],"loss_changes":[5.407809E2,8.645294E1,1.0960774E2,1.6801392E1,8.702332E0,1.4911934E1,1.8669281E1,1.5023346E0,4.063553E0,5.7220383E0,3.6052208E0,6.3049736E0,9.257717E0,3.644806E0,2.5480804E0,0E0,0E0,0E0,0E0,0E0,0E0,0E0,0E0,0E0,0E0,0E0,0E0,0E0,0E0,0E0,0E0],"parents":[2147483647,0,0,1,1,2,2,3,3,4,4,5,5,6,6,7,7,8,8,9,9,10,10,11,11,12,12,13,13,14,14],"right_children":[2,4,6,8,10,12,14,16,18,20,22,24,26,28,30,-1,-1,-1,-1,-1,-1,-1,-1,-1,-1,-1,-1,-1,-1,-1,-1],"split_conditions":[1.1809239E1,-1.812143E2,2.1319771E2,-3.6524573E2,1E0,7.739849E1,3.7824905E2,-4.8681454E2,1E0,-7.121598E1,-1.3550842E2,1E0,1E0,1E0,4.6417197E2,-5.9460577E-2,-4.835494E-2,-3.0273525E-2,-4.2487647E-2,-1.4744687E-2,-5.1896437E-3,-3.446633E-2,-1.8382676E-2,6.1791367E-3,-7.96952E-3,1.0278802E-2,2.337323E-2,3.4008697E-2,2.3148257E-2,4.4150617E-2,5.6753285E-2],"split_indices":[0,0,0,0,1,0,0,0,1,0,0,1,4,1,0,0,0,0,0,0,0,0,0,0,0,0,0,0,0,0,0],"split_type":[0,0,0,0,0,0,0,0,0,0,0,0,0,0,0,0,0,0,0,0,0,0,0,0,0,0,0,0,0,0,0],"sum_hessian":[1.1934067E4,5.648844E3,6.2852227E3,2.087837E3,3.561007E3,3.9636064E3,2.3216165E3,5.8517126E2,1.5026656E3,2.511894E3,1.0491132E3,1.4270002E3,2.5366062E3,1.6168196E3,7.0479675E2,2.5887015E2,3.2630115E2,1.132087E3,3.7057864E2,1.2952568E3,1.2166372E3,1.6687929E2,8.822338E2,9.5930133E2,4.676989E2,1.755589E3,7.810172E2,1.1847289E3,4.320907E2,3.433332E2,3.614636E2],"tree_param":{"num_deleted":"0","num_feature":"7","num_nodes":"31","size_leaf_vector":"1"}},{"base_weights":[-4.655014E-3,1.9456847E-1,-2.591181E-1,4.003183E-1,8.8346705E-2,-1.5376264E-1,-3.9941975E-1,5.737026E-1,3.122734E-1,3.6468163E-2,1.9959001E-1,-2.0259978E-1,-6.410671E-2,-3.5006267E-1,-5.009857E-1,6.778638E-2,4.8656132E-2,2.5670854E-2,4.65573E-2,1.35610625E-2,-2.3436532E-3,3.2408077E-2,1.55332675E-2,-1.3943061E-2,-2.6680604E-2,-1.7799123E-3,-1.4718816E-2,-3.178204E-2,-4.049935E-2,-5.0386764E-2,9.459778E-3],"categories":[],"categories_nodes":[],"categories_segments":[],"categories_sizes":[],"default_left":[0,0,0,0,0,0,0,0,0,0,0,0,0,0,0,0,0,0,0,0,0,0,0,0,0,0,0,0,0,0,0],"id":26,"left_children":[1,3,5,7,9,11,13,15,17,19,21,23,25,27,29,-1,-1,-1,-1,-1,-1,-1,-1,-1,-1,-1,-1,-1,-1,-1,-1],"loss_changes":[4.9879883E2,1.20574554E2,6.380368E1,2.8500702E1,2.1004805E1,1.0798679E1,9.110504E0,5.4023895E0,1.0512718E1,1.4756975E1,6.328205E0,6.444229E0,3.3529835E0,2.084961E0,1.0834503E0,0E0,0E0,0E0,0E0,0E0,0E0,0E0,0E0,0E0,0E0,0E0,0E0,0E0,0E0,0E0,0E0],"parents":[2147483647,0,0,1,1,2,2,3,3,4,4,5,5,6,6,7,7,8,8,9,9,10,10,11,11,12,12,13,13,14,14],"right_children":[2,4,6,8,10,12,14,16,18,20,22,24,26,28,30,-1,-1,-1,-1,-1,-1,-1,-1,-1,-1,-1,-1,-1,-1,-1,-1],"split_conditions":[1.1809239E1,-2.1950603E2,1.7725594E2,-3.866824E2,1E0,1E0,3.3394736E2,-5.0699063E2,1E0,-1.21061806E2,-1.386189E2,8.691043E1,1.09302895E2,1E0,1E0,6.778638E-2,4.8656132E-2,2.5670854E-2,4.65573E-2,1.35610625E-2,-2.3436532E-3,3.2408077E-2,1.55332675E-2,-1.3943061E-2,-2.6680604E-2,-1.7799123E-3,-1.4718816E-2,-3.178204E-2,-4.049935E-2,-5.0386764E-2,9.459778E-3],"split_indices":[0,0,0,0,1,1,0,0,1,0,0,0,0,4,6,0,0,0,0,0,0,0,0,0,0,0,0,0,0,0,0],"split_type":[0,0,0,0,0,0,0,0,0,0,0,0,0,0,0,0,0,0,0,0,0,0,0,0,0,0,0,0,0,0,0],"sum_hessian":[9.837212E3,5.517614E3,4.3195977E3,1.8777241E3,3.6398896E3,2.46824E3,1.8513579E3,6.3052783E2,1.2471963E3,2.4831812E3,1.1567085E3,1.5970432E3,8.711968E2,1.2488916E3,6.0246625E2,2.8412732E2,3.464005E2,9.173637E2,3.2983252E2,9.348077E2,1.5483734E3,3.0171024E2,8.5499835E2,8.066219E2,7.904213E2,5.601802E2,3.110166E2,7.9124634E2,4.5764532E2,5.997183E2,2.7479258E0],"tree_param":{"num_deleted":"0","num_feature":"7","num_nodes":"31","size_leaf_vector":"1"}},{"base_weights":[1.1202311E-2,3.465632E-2,-2.1769437E-1,-3.4740803E-1,4.318232E-2,-1.6198416E-1,-3.7011218E-1,-4.8697066E-2,-2.6143727E-1,1.7298046E-2,8.9311235E-2,-1.9201657E-1,-9.194992E-2,-3.1698042E-1,-4.5287868E-1,-2.9907515E-2,-7.3843165E-3,3.2434326E-3,-4.9379165E-3,1.0204294E-2,-4.9394164E-3,-1.6146787E-2,-2.59684E-2,-1.36701185E-2,-3.4031407E-3,-3.0483846E-2,-4.93631E-2,-4.6874505E-2,-2.2400491E-2],"categories":[],"categories_nodes":[],"categories_segments":[],"categories_sizes":[],"default_left":[0,0,0,0,0,0,0,0,0,0,0,0,0,0,0,0,0,0,0,0,0,0,0,0,0,0,0,0,0],"id":27,"left_children":[1,3,5,7,9,11,13,-1,15,17,19,21,23,25,27,-1,-1,-1,-1,-1,-1,-1,-1,-1,-1,-1,-1,-1,-1],"loss_changes":[4.763794E1,2.6232487E1,6.9430313E0,1.9819279E0,9.399639E0,1.2564182E0,8.238106E-1,0E0,7.612462E-1,5.0930085E0,5.0023937E0,8.325424E-1,4.7153497E-1,1.4403248E-1,1.9884682E-1,0E0,0E0,0E0,0E0,0E0,0E0,0E0,0E0,0E0,0E0,0E0,0E0,0E0,0E0],"parents":[2147483647,0,0,1,1,2,2,3,3,4,4,5,5,6,6,8,8,9,9,10,10,11,11,12,12,13,13,14,14],"right_children":[2,4,6,8,10,12,14,-1,16,18,20,22,24,26,28,-1,-1,-1,-1,-1,-1,-1,-1,-1,-1,-1,-1,-1,-1],"split_conditions":[2.8766275E2,-4.8681454E2,4.5065588E2,-6.0851904E2,1E0,1E0,5.7769275E2,-4.8697066E-2,1E0,1.4680797E2,2.0072046E2,3.7824905E2,3.5540955E2,1E0,1E0,-2.9907515E-2,-7.3843165E-3,3.2434326E-3,-4.9379165E-3,1.0204294E-2,-4.9394164E-3,-1.6146787E-2,-2.59684E-2,-1.36701185E-2,-3.4031407E-3,-3.0483846E-2,-4.93631E-2,-4.6874505E-2,-2.2400491E-2],"split_indices":[0,0,0,0,2,2,0,0,2,0,0,0,0,5,3,0,0,0,0,0,0,0,0,0,0,0,0,0,0],"split_type":[0,0,0,0,0,0,0,0,0,0,0,0,0,0,0,0,0,0,0,0,0,0,0,0,0,0,0,0,0],"sum_hessian":[8.871124E3,8.047393E3,8.237314E2,1.7479489E2,7.872598E3,6.047515E2,2.1897989E2,6.485182E1,1.0994308E2,5.043768E3,2.8288298E3,4.22032E2,1.8271947E2,1.363075E2,8.26724E1,9.107583E1,1.886725E1,4.111041E3,9.327269E2,2.591245E3,2.3758476E2,2.9309808E2,1.2893394E2,1.0230915E2,8.0410324E1,1.3009138E2,6.2161036E0,7.633269E1,6.3397145E0],"tree_param":{"num_deleted":"0","num_feature":"7","num_nodes":"29","size_leaf_vector":"1"}},{"base_weights":[-4.0988117E-3,-2.1829607E-1,1.7829576E-1,-3.79002E-1,-1.3447683E-1,8.540683E-2,3.4615877E-1,-5.194073E-1,-3.2438374E-1,-2.2541083E-1,-1.0693856E-1,1.1472256E-2,1.3152991E-1,2.8877065E-1,4.8037764E-1,-6.0952555E-2,-4.8546582E-2,-2.9521687E-2,-4.1384596E-2,-1.8706314E-2,-3.4955397E-2,-7.946425E-3,-1.696661E-2,5.6760586E-3,-8.330657E-3,9.364404E-3,2.1676393E-2,3.1650916E-2,2.1257702E-2,4.1452244E-2,5.425455E-2],"categories":[],"categories_nodes":[],"categories_segments":[],"categories_sizes":[],"default_left":[0,0,0,0,0,0,0,0,0,0,0,0,0,0,0,0,0,0,0,0,0,0,0,0,0,0,0,0,0,0,0],"id":28,"left_children":[1,3,5,7,9,11,13,15,17,19,21,23,25,27,29,-1,-1,-1,-1,-1,-1,-1,-1,-1,-1,-1,-1,-1,-1,-1,-1],"loss_changes":[4.6146686E2,7.312317E1,9.944328E1,1.4107178E1,8.920105E0,1.4007883E1,1.7363586E1,1.2936707E0,3.3818207E0,3.8827095E0,4.714487E0,6.7839665E0,8.149006E0,3.3020782E0,2.5552063E0,0E0,0E0,0E0,0E0,0E0,0E0,0E0,0E0,0E0,0E0,0E0,0E0,0E0,0E0,0E0,0E0],"parents":[2147483647,0,0,1,1,2,2,3,3,4,4,5,5,6,6,7,7,8,8,9,9,10,10,11,11,12,12,13,13,14,14],"right_children":[2,4,6,8,10,12,14,16,18,20,22,24,26,28,30,-1,-1,-1,-1,-1,-1,-1,-1,-1,-1,-1,-1,-1,-1,-1,-1],"split_conditions":[5.0172415E0,-1.9628627E2,2.1319771E2,-3.757749E2,-1.3550842E2,7.739849E1,3.7824905E2,-5.672506E2,1E0,1E0,1E0,1E0,1E0,1E0,4.6417197E2,-6.0952555E-2,-4.8546582E-2,-2.9521687E-2,-4.1384596E-2,-1.8706314E-2,-3.4955397E-2,-7.946425E-3,-1.696661E-2,5.6760586E-3,-8.330657E-3,9.364404E-3,2.1676393E-2,3.1650916E-2,2.1257702E-2,4.1452244E-2,5.425455E-2],"split_indices":[0,0,0,0,0,0,0,0,1,3,1,1,4,1,0,0,0,0,0,0,0,0,0,0,0,0,0,0,0,0,0],"split_type":[0,0,0,0,0,0,0,0,0,0,0,0,0,0,0,0,0,0,0,0,0,0,0,0,0,0,0,0,0,0,0],"sum_hessian":[1.1809765E4,5.4312793E3,6.378485E3,1.860547E3,3.5707324E3,4.107218E3,2.2712673E3,5.186813E2,1.3418657E3,8.28328E2,2.7424045E3,1.5783676E3,2.52885E3,1.5932085E3,6.780589E2,1.3726622E2,3.8141507E2,1.015189E3,3.2667667E2,6.3475854E2,1.9356946E2,1.9086799E3,8.3372455E2,1.0683007E3,5.1006683E2,1.7521373E3,7.767129E2,1.165684E3,4.275245E2,3.3298816E2,3.4507074E2],"tree_param":{"num_deleted":"0","num_feature":"7","num_nodes":"31","size_leaf_vector":"1"}},{"base_weights":[-5.2311285E-3,1.8248612E-1,-2.3941493E-1,4.1251162E-1,1.0239824E-1,-1.3881874E-1,-3.8420925E-1,6.216994E-1,3.4865475E-1,1.9581458E-1,4.3609668E-2,-1.8645795E-1,-5.164286E-2,-3.3491132E-1,-4.8816043E-1,7.120452E-2,5.550449E-2,3.050354E-2,4.8599835E-2,1.424461E-2,3.296871E-2,-6.3391885E-4,1.43166585E-2,-1.2764488E-2,-2.5333509E-2,1.7224888E-3,-1.0747315E-2,-3.030234E-2,-3.8976762E-2,-4.91163E-2,9.983686E-3],"categories":[],"categories_nodes":[],"categories_segments":[],"categories_sizes":[],"default_left":[0,0,0,0,0,0,0,0,0,0,0,0,0,0,0,0,0,0,0,0,0,0,0,0,0,0,0,0,0,0,0],"id":29,"left_children":[1,3,5,7,9,11,13,15,17,19,21,23,25,27,29,-1,-1,-1,-1,-1,-1,-1,-1,-1,-1,-1,-1,-1,-1,-1,-1],"loss_changes":[4.284444E2,9.961839E1,6.3109116E1,1.8441376E1,2.2035751E1,1.0623135E1,8.94342E0,1.5642395E0,6.276245E0,1.1027962E1,1.2258305E1,6.477867E0,3.4857116E0,1.9960785E0,1.0544586E0,0E0,0E0,0E0,0E0,0E0,0E0,0E0,0E0,0E0,0E0,0E0,0E0,0E0,0E0,0E0,0E0],"parents":[2147483647,0,0,1,1,2,2,3,3,4,4,5,5,6,6,7,7,8,8,9,9,10,10,11,11,12,12,13,13,14,14],"right_children":[2,4,6,8,10,12,14,16,18,20,22,24,26,28,30,-1,-1,-1,-1,-1,-1,-1,-1,-1,-1,-1,-1,-1,-1,-1,-1],"split_conditions":[5.0172415E0,-2.668098E2,1.7725594E2,-4.8681454E2,-1.386189E2,1E0,3.3394736E2,-6.0851904E2,1E0,1E0,1E0,8.691043E1,7.448826E1,1E0,1E0,7.120452E-2,5.550449E-2,3.050354E-2,4.8599835E-2,1.424461E-2,3.296871E-2,-6.3391885E-4,1.43166585E-2,-1.2764488E-2,-2.5333509E-2,1.7224888E-3,-1.0747315E-2,-3.030234E-2,-3.8976762E-2,-4.91163E-2,9.983686E-3],"split_indices":[0,0,0,0,0,1,0,0,1,1,1,0,0,4,6,0,0,0,0,0,0,0,0,0,0,0,0,0,0,0,0],"split_type":[0,0,0,0,0,0,0,0,0,0,0,0,0,0,0,0,0,0,0,0,0,0,0,0,0,0,0,0,0,0,0],"sum_hessian":[9.744164E3,5.408797E3,4.335367E3,1.3957689E3,4.013028E3,2.5592683E3,1.7760986E3,3.2438504E2,1.0713839E3,1.5491167E3,2.4639114E3,1.654171E3,9.050975E2,1.207618E3,5.6848065E2,1.3360696E2,1.9077806E2,8.155817E2,2.5580212E2,1.1090546E3,4.4006213E2,1.6413589E3,8.225524E2,8.8169745E2,7.724735E2,4.0554337E2,4.995541E2,7.678131E2,4.3980493E2,5.6575635E2,2.7242978E0],"tree_param":{"num_deleted":"0","num_feature":"7","num_nodes":"31","size_leaf_vector":"1"}},{"base_weights":[1.2461642E-2,3.3725314E-2,-2.0187473E-1,-3.306981E-1,4.1477207E-2,-1.4821148E-1,-3.534796E-1,-4.7523104E-2,-2.444664E-1,1.7237155E-2,8.449133E-2,-1.7795874E-1,-7.939067E-2,-2.9875484E-1,-4.4002703E-1,-2.823302E-2,-5.934512E-3,-1.6145661E-2,2.244302E-3,9.578736E-3,-4.0657865E-3,-1.4905649E-2,-2.4300506E-2,-1.2426632E-2,-2.1603287E-3,-3.1844545E-2,-2.0812899E-2,-4.5673933E-2,-2.0611499E-2],"categories":[],"categories_nodes":[],"categories_segments":[],"categories_sizes":[],"default_left":[0,0,0,0,0,0,0,0,0,0,0,0,0,0,0,0,0,0,0,0,0,0,0,0,0,0,0,0,0],"id":30,"left_children":[1,3,5,7,9,11,13,-1,15,17,19,21,23,25,27,-1,-1,-1,-1,-1,-1,-1,-1,-1,-1,-1,-1,-1,-1],"loss_changes":[4.0333576E1,2.2756304E1,6.4457664E0,1.9750843E0,8.218665E0,1.197094E0,8.541126E-1,0E0,7.343154E-1,4.695387E0,4.0205326E0,7.388611E-1,4.6503067E-1,1.6676998E-1,2.1270657E-1,0E0,0E0,0E0,0E0,0E0,0E0,0E0,0E0,0E0,0E0,0E0,0E0,0E0,0E0],"parents":[2147483647,0,0,1,1,2,2,3,3,4,4,5,5,6,6,8,8,9,9,10,10,11,11,12,12,13,13,14,14],"right_children":[2,4,6,8,10,12,14,-1,16,18,20,22,24,26,28,-1,-1,-1,-1,-1,-1,-1,-1,-1,-1,-1,-1,-1,-1],"split_conditions":[2.8766275E2,-4.8681454E2,4.5065588E2,-6.0851904E2,1E0,1E0,5.7769275E2,-4.7523104E-2,1E0,-3.866824E2,2.0072046E2,3.7824905E2,3.5540955E2,1E0,1E0,-2.823302E-2,-5.934512E-3,-1.6145661E-2,2.244302E-3,9.578736E-3,-4.0657865E-3,-1.4905649E-2,-2.4300506E-2,-1.2426632E-2,-2.1603287E-3,-3.1844545E-2,-2.0812899E-2,-4.5673933E-2,-2.0611499E-2],"split_indices":[0,0,0,0,2,2,0,0,2,0,0,0,0,1,3,0,0,0,0,0,0,0,0,0,0,0,0,0,0],"split_type":[0,0,0,0,0,0,0,0,0,0,0,0,0,0,0,0,0,0,0,0,0,0,0,0,0,0,0,0,0],"sum_hessian":[8.847287E3,8.049557E3,7.977299E2,1.667933E2,7.8827637E3,5.9063995E2,2.0709E2,6.0641327E1,1.0615198E2,5.0425186E3,2.8402454E3,4.1128104E2,1.7935892E2,1.295967E2,7.749329E1,8.769099E1,1.8460997E1,1.4189496E2,4.9006235E3,2.6053223E3,2.3492311E2,2.8703384E2,1.24247185E2,1.00310715E2,7.9048195E1,1.0439956E2,2.5197136E1,7.143675E1,6.05654E0],"tree_param":{"num_deleted":"0","num_feature":"7","num_nodes":"29","size_leaf_vector":"1"}},{"base_weights":[-4.7015133E-3,-2.0371176E-1,1.6432934E-1,-3.952124E-1,-1.3990712E-1,8.8703126E-2,3.4676766E-1,-4.991248E-1,-3.3365223E-1,-2.2555763E-1,-9.935291E-2,4.6573885E-2,1.7021173E-1,2.947152E-1,4.7574052E-1,-5.9260316E-2,-4.647881E-2,-3.7328433E-2,-2.1637117E-2,-1.8812265E-2,-3.3559356E-2,-7.4254507E-3,-1.5695665E-2,8.65573E-3,-3.6545934E-3,1.2354141E-2,2.6477775E-2,3.1963054E-2,2.2508355E-2,4.376794E-2,5.7469517E-2],"categories":[],"categories_nodes":[],"categories_segments":[],"categories_sizes":[],"default_left":[0,0,0,0,0,0,0,0,0,0,0,0,0,0,0,0,0,0,0,0,0,0,0,0,0,0,0,0,0,0,0],"id":31,"left_children":[1,3,5,7,9,11,13,15,17,19,21,23,25,27,29,-1,-1,-1,-1,-1,-1,-1,-1,-1,-1,-1,-1,-1,-1,-1,-1],"loss_changes":[3.9320563E2,6.553952E1,8.717534E1,8.412323E0,1.3969933E1,1.5340504E1,1.2292374E1,1.319519E0,3.8477783E0,5.265709E0,3.9434624E0,9.80068E0,6.68742E0,2.2216644E0,1.7479172E0,0E0,0E0,0E0,0E0,0E0,0E0,0E0,0E0,0E0,0E0,0E0,0E0,0E0,0E0,0E0,0E0],"parents":[2147483647,0,0,1,1,2,2,3,3,4,4,5,5,6,6,7,7,8,8,9,9,10,10,11,11,12,12,13,13,14,14],"right_children":[2,4,6,8,10,12,14,16,18,20,22,24,26,28,30,-1,-1,-1,-1,-1,-1,-1,-1,-1,-1,-1,-1,-1,-1,-1,-1],"split_conditions":[5.0172415E0,-2.4167328E2,2.4007841E2,-3.757749E2,-1.3550842E2,1.4411174E2,4.037039E2,-5.672506E2,1E0,1E0,1E0,1E0,1E0,1E0,5.7769275E2,-5.9260316E-2,-4.647881E-2,-3.7328433E-2,-2.1637117E-2,-1.8812265E-2,-3.3559356E-2,-7.4254507E-3,-1.5695665E-2,8.65573E-3,-3.6545934E-3,1.2354141E-2,2.6477775E-2,3.1963054E-2,2.2508355E-2,4.376794E-2,5.7469517E-2],"split_indices":[0,0,0,0,0,0,0,0,2,1,1,1,4,1,0,0,0,0,0,0,0,0,0,0,0,0,0,0,0,0,0],"split_type":[0,0,0,0,0,0,0,0,0,0,0,0,0,0,0,0,0,0,0,0,0,0,0,0,0,0,0,0,0,0,0],"sum_hessian":[1.168703E4,5.3674272E3,6.3196025E3,1.3401031E3,4.0273245E3,4.468684E3,1.8509186E3,4.9590936E2,8.441937E2,1.2926615E3,2.7346628E3,2.9470286E3,1.5216555E3,1.3210415E3,5.29877E2,1.2885509E2,3.6705426E2,6.293415E2,2.1485223E2,9.6654565E2,3.2611578E2,1.906343E3,8.2831995E2,1.9898182E3,9.572104E2,1.0203819E3,5.0127356E2,9.7027234E2,3.5076917E2,3.8660095E2,1.4327608E2],"tree_param":{"num_deleted":"0","num_feature":"7","num_nodes":"31","size_leaf_vector":"1"}},{"base_weights":[-5.7299007E-3,1.6264741E-1,-2.3245692E-1,3.5475767E-1,7.8963675E-2,-1.4781363E-1,-3.9096648E-1,5.852167E-1,3.01213E-1,1.281681E-1,1.136277E-3,-8.574256E-2,-2.0834431E-1,-3.4693876E-1,-4.9075288E-1,6.786374E-2,5.1799823E-2,2.4758635E-2,4.6150424E-2,1.6798599E-2,4.7055907E-3,-5.589765E-3,1.1088667E-2,-1.2656589E-2,-1.2062552E-3,-1.6201522E-2,-3.198882E-2,-3.150398E-2,-3.97242E-2,-4.927581E-2,1.0343293E-2],"categories":[],"categories_nodes":[],"categories_segments":[],"categories_sizes":[],"default_left":[0,0,0,0,0,0,0,0,0,0,0,0,0,0,0,0,0,0,0,0,0,0,0,0,0,0,0,0,0,0,0],"id":32,"left_children":[1,3,5,7,9,11,13,15,17,19,21,23,25,27,29,-1,-1,-1,-1,-1,-1,-1,-1,-1,-1,-1,-1,-1,-1,-1,-1],"loss_changes":[3.6856125E2,8.903706E1,5.51425E1,2.0563675E1,1.4782869E1,1.0065254E1,6.119278E0,1.6316605E0,1.1626991E1,7.6306076E0,9.372114E0,3.9889393E0,6.9659233E0,1.4742508E0,5.70282E-1,0E0,0E0,0E0,0E0,0E0,0E0,0E0,0E0,0E0,0E0,0E0,0E0,0E0,0E0,0E0,0E0],"parents":[2147483647,0,0,1,1,2,2,3,3,4,4,5,5,6,6,7,7,8,8,9,9,10,10,11,11,12,12,13,13,14,14],"right_children":[2,4,6,8,10,12,14,16,18,20,22,24,26,28,30,-1,-1,-1,-1,-1,-1,-1,-1,-1,-1,-1,-1,-1,-1,-1,-1],"split_conditions":[1.1809239E1,-2.3694818E2,2.036147E2,-4.8681454E2,-7.121598E1,9.308186E1,3.6265314E2,-6.0851904E2,1E0,1E0,1E0,1E0,1E0,1E0,1E0,6.786374E-2,5.1799823E-2,2.4758635E-2,4.6150424E-2,1.6798599E-2,4.7055907E-3,-5.589765E-3,1.1088667E-2,-1.2656589E-2,-1.2062552E-3,-1.6201522E-2,-3.198882E-2,-3.150398E-2,-3.97242E-2,-4.927581E-2,1.0343293E-2],"split_indices":[0,0,0,0,0,0,0,0,1,2,1,1,4,4,6,0,0,0,0,0,0,0,0,0,0,0,0,0,0,0,0],"split_type":[0,0,0,0,0,0,0,0,0,0,0,0,0,0,0,0,0,0,0,0,0,0,0,0,0,0,0,0,0,0,0],"sum_hessian":[9.6523545E3,5.5390776E3,4.1132764E3,1.6797307E3,3.859347E3,2.6826746E3,1.4306019E3,3.148161E2,1.3649147E3,2.3640737E3,1.4952733E3,1.3256777E3,1.3569968E3,9.957393E2,4.3486264E2,1.2792665E2,1.8688943E2,1.0246536E3,3.402611E2,1.5849518E3,7.7912195E2,9.842693E2,5.1100403E2,8.5257825E2,4.7309943E2,9.6050793E2,3.9648895E2,6.137821E2,3.819572E2,4.3357016E2,1.2924743E0],"tree_param":{"num_deleted":"0","num_feature":"7","num_nodes":"31","size_leaf_vector":"1"}},{"base_weights":[1.3583416E-2,3.2798115E-2,-1.8630072E-1,-1.978618E-1,4.337606E-2,-1.3449718E-1,-3.3720773E-1,-4.6352644E-2,-1.4558324E-1,6.407205E-2,3.4670604E-3,-1.6395867E-1,-6.686924E-2,-2.8200543E-1,-4.2650503E-1,-9.4036E-3,-3.532325E-2,8.34842E-3,1.6644018E-3,-1.8783243E-3,4.9895328E-3,-1.3627663E-2,-2.271206E-2,-1.11447675E-2,-9.834447E-4,-2.6886294E-2,-4.7756642E-2,-4.4417694E-2,-1.8707307E-2],"categories":[],"categories_nodes":[],"categories_segments":[],"categories_sizes":[],"default_left":[0,0,0,0,0,0,0,0,0,0,0,0,0,0,0,0,0,0,0,0,0,0,0,0,0,0,0,0,0],"id":33,"left_children":[1,3,5,7,9,11,13,-1,15,17,19,21,23,25,27,-1,-1,-1,-1,-1,-1,-1,-1,-1,-1,-1,-1,-1,-1],"loss_changes":[3.390466E1,1.965696E1,6.00688E0,4.839198E0,6.360161E0,1.1406641E0,8.517246E-1,0E0,3.1421204E0,4.6672745E0,2.7186096E0,6.717901E-1,4.4914007E-1,1.9237328E-1,2.2738075E-1,0E0,0E0,0E0,0E0,0E0,0E0,0E0,0E0,0E0,0E0,0E0,0E0,0E0,0E0],"parents":[2147483647,0,0,1,1,2,2,3,3,4,4,5,5,6,6,8,8,9,9,10,10,11,11,12,12,13,13,14,14],"right_children":[2,4,6,8,10,12,14,-1,16,18,20,22,24,26,28,-1,-1,-1,-1,-1,-1,-1,-1,-1,-1,-1,-1,-1,-1],"split_conditions":[2.8766275E2,-3.866824E2,4.5065588E2,-6.0851904E2,6.507098E1,1E0,5.7769275E2,-4.6352644E-2,1E0,1E0,1E0,3.7824905E2,3.5540955E2,1E0,1E0,-9.4036E-3,-3.532325E-2,8.34842E-3,1.6644018E-3,-1.8783243E-3,4.9895328E-3,-1.3627663E-2,-2.271206E-2,-1.11447675E-2,-9.834447E-4,-2.6886294E-2,-4.7756642E-2,-4.4417694E-2,-1.8707307E-2],"split_indices":[0,0,0,0,0,2,0,0,1,1,1,0,0,5,3,0,0,0,0,0,0,0,0,0,0,0,0,0,0],"split_type":[0,0,0,0,0,0,0,0,0,0,0,0,0,0,0,0,0,0,0,0,0,0,0,0,0,0,0,0,0],"sum_hessian":[8.825107E3,8.0519185E3,7.731884E2,3.5228906E2,7.6996294E3,5.7700476E2,1.9618367E2,5.6632492E1,2.9565656E2,5.069885E3,2.6297446E3,4.009222E2,1.7608252E2,1.23806404E2,7.2377266E1,2.3802231E2,5.763425E1,3.5969172E3,1.4729677E3,1.7781693E3,8.5157526E2,2.809483E2,1.1997393E2,9.829839E1,7.7784134E1,1.1823533E2,5.571071E0,6.66061E1,5.7711663E0],"tree_param":{"num_deleted":"0","num_feature":"7","num_nodes":"29","size_leaf_vector":"1"}},{"base_weights":[-5.1510544E-3,-1.7391889E-1,1.6732216E-1,-3.285254E-1,-9.716522E-2,9.480081E-2,3.245355E-1,-4.808053E-1,-2.7888379E-1,-1.533214E-1,-6.4229526E-2,1.3414048E-1,1.2105217E-2,2.741503E-1,4.52681E-1,-5.7734646E-2,-4.4633634E-2,-3.0812247E-2,-1.9927619E-2,-1.2606362E-2,-2.2479372E-2,-8.820615E-3,-1.7065291E-3,1.7871497E-2,6.9322637E-3,-2.5759456E-3,1.2628185E-2,2.9845564E-2,2.0663792E-2,4.071705E-2,5.392594E-2],"categories":[],"categories_nodes":[],"categories_segments":[],"categories_sizes":[],"default_left":[0,0,0,0,0,0,0,0,0,0,0,0,0,0,0,0,0,0,0,0,0,0,0,0,0,0,0,0,0,0,0],"id":34,"left_children":[1,3,5,7,9,11,13,15,17,19,21,23,25,27,29,-1,-1,-1,-1,-1,-1,-1,-1,-1,-1,-1,-1,-1,-1,-1,-1],"loss_changes":[3.368155E2,6.936925E1,6.521701E1,1.4529663E1,7.221199E0,1.2743462E1,1.1537445E1,1.3246536E0,3.349228E0,2.7860107E0,2.7871866E0,7.6575356E0,5.4679275E0,2.0697708E0,1.7828293E0,0E0,0E0,0E0,0E0,0E0,0E0,0E0,0E0,0E0,0E0,0E0,0E0,0E0,0E0,0E0,0E0],"parents":[2147483647,0,0,1,1,2,2,3,3,4,4,5,5,6,6,7,7,8,8,9,9,10,10,11,11,12,12,13,13,14,14],"right_children":[2,4,6,8,10,12,14,16,18,20,22,24,26,28,30,-1,-1,-1,-1,-1,-1,-1,-1,-1,-1,-1,-1,-1,-1,-1,-1],"split_conditions":[2.919292E1,-1.812143E2,2.4007841E2,-3.757749E2,-8.952883E1,1E0,4.037039E2,-5.672506E2,1E0,1E0,-8.774827E0,1E0,1.7157463E2,1E0,5.423964E2,-5.7734646E-2,-4.4633634E-2,-3.0812247E-2,-1.9927619E-2,-1.2606362E-2,-2.2479372E-2,-8.820615E-3,-1.7065291E-3,1.7871497E-2,6.9322637E-3,-2.5759456E-3,1.2628185E-2,2.9845564E-2,2.0663792E-2,4.071705E-2,5.392594E-2],"split_indices":[0,0,0,0,0,1,0,0,2,1,0,2,0,1,0,0,0,0,0,0,0,0,0,0,0,0,0,0,0,0,0],"split_type":[0,0,0,0,0,0,0,0,0,0,0,0,0,0,0,0,0,0,0,0,0,0,0,0,0,0,0,0,0,0,0],"sum_hessian":[1.1569263E4,5.8474395E3,5.7218228E3,1.938798E3,3.9086416E3,3.9166868E3,1.8051357E3,4.7451047E2,1.4642876E3,1.4436047E3,2.465037E3,2.6536697E3,1.2630171E3,1.2979412E3,5.0719464E2,1.2070068E2,3.5380978E2,1.0688462E3,3.954414E2,1.0470493E3,3.9655533E2,1.6336678E3,8.313691E2,1.5713284E3,1.0823414E3,9.4905426E2,3.139628E2,9.518441E2,3.4609705E2,3.3618158E2,1.7101306E2],"tree_param":{"num_deleted":"0","num_feature":"7","num_nodes":"31","size_leaf_vector":"1"}},{"base_weights":[-6.3041807E-3,1.4860177E-1,-2.1995503E-1,3.5263005E-1,8.091471E-2,-1.3886407E-1,-3.7660515E-1,5.5249774E-1,2.9558912E-1,3.706278E-2,1.7602263E-1,-7.973406E-2,-1.9714856E-1,-3.3236024E-1,-4.7938275E-1,6.496079E-2,4.844835E-2,2.5626902E-2,4.211512E-2,1.1158551E-2,-2.5481572E-3,3.15752E-2,1.30526265E-2,-1.1774219E-2,-1.1866187E-3,-1.52503345E-2,-3.0618727E-2,-3.007789E-2,-3.8268697E-2,-4.814858E-2,1.0845576E-2],"categories":[],"categories_nodes":[],"categories_segments":[],"categories_sizes":[],"default_left":[0,0,0,0,0,0,0,0,0,0,0,0,0,0,0,0,0,0,0,0,0,0,0,0,0,0,0,0,0,0,0],"id":35,"left_children":[1,3,5,7,9,11,13,15,17,19,21,23,25,27,29,-1,-1,-1,-1,-1,-1,-1,-1,-1,-1,-1,-1,-1,-1,-1,-1],"loss_changes":[3.1654254E2,7.654125E1,5.101288E1,1.5579742E1,1.7362621E1,9.118443E0,6.073242E0,1.7027054E0,5.2065964E0,1.3294224E1,8.311905E0,3.3966846E0,6.4475555E0,1.4129105E0,5.5931854E-1,0E0,0E0,0E0,0E0,0E0,0E0,0E0,0E0,0E0,0E0,0E0,0E0,0E0,0E0,0E0,0E0],"parents":[2147483647,0,0,1,1,2,2,3,3,4,4,5,5,6,6,7,7,8,8,9,9,10,10,11,11,12,12,13,13,14,14],"right_children":[2,4,6,8,10,12,14,16,18,20,22,24,26,28,30,-1,-1,-1,-1,-1,-1,-1,-1,-1,-1,-1,-1,-1,-1,-1,-1],"split_conditions":[1.1809239E1,-2.668098E2,2.036147E2,-4.8681454E2,1E0,9.308186E1,3.6265314E2,-6.0851904E2,1E0,-1.21061806E2,-1.7102858E2,1E0,1E0,1E0,1E0,6.496079E-2,4.844835E-2,2.5626902E-2,4.211512E-2,1.1158551E-2,-2.5481572E-3,3.15752E-2,1.30526265E-2,-1.1774219E-2,-1.1866187E-3,-1.52503345E-2,-3.0618727E-2,-3.007789E-2,-3.8268697E-2,-4.814858E-2,1.0845576E-2],"split_indices":[0,0,0,0,1,0,0,0,1,0,0,1,4,4,6,0,0,0,0,0,0,0,0,0,0,0,0,0,0,0,0],"split_type":[0,0,0,0,0,0,0,0,0,0,0,0,0,0,0,0,0,0,0,0,0,0,0,0,0,0,0,0,0,0,0],"sum_hessian":[9.562447E3,5.543488E3,4.0189597E3,1.3798906E3,4.163597E3,2.6493784E3,1.3695814E3,3.0444592E2,1.0754446E3,2.8506309E3,1.3129663E3,1.3163253E3,1.3330531E3,9.603796E2,4.0920184E2,1.2187825E2,1.8256769E2,8.212949E2,2.541497E2,1.3003984E3,1.5502323E3,3.2104037E2,9.91926E2,8.433103E2,4.7301498E2,9.4750256E2,3.855505E2,5.9437195E2,3.660076E2,4.0792343E2,1.2784371E0],"tree_param":{"num_deleted":"0","num_feature":"7","num_nodes":"31","size_leaf_vector":"1"}},{"base_weights":[1.4573174E-2,3.190675E-2,-1.7125244E-1,-2.987164E-1,3.832616E-2,-1.2145313E-1,-3.209116E-1,-4.5179695E-2,-2.1389909E-1,1.6115762E-2,7.75397E-2,-1.5056632E-1,-5.5143904E-2,-2.651438E-1,-4.1313747E-1,-2.5309851E-2,-2.724603E-3,-1.4425299E-2,2.0662078E-3,1.1089457E-2,4.5401384E-3,-1.2411454E-2,-2.1173885E-2,-1.1356335E-2,-1.2450768E-3,-2.5169391E-2,-4.6882957E-2,-2.883114E-2,-4.580718E-2],"categories":[],"categories_nodes":[],"categories_segments":[],"categories_sizes":[],"default_left":[0,0,0,0,0,0,0,0,0,0,0,0,0,0,0,0,0,0,0,0,0,0,0,0,0,0,0,0,0],"id":36,"left_children":[1,3,5,7,9,11,13,-1,15,17,19,21,23,25,27,-1,-1,-1,-1,-1,-1,-1,-1,-1,-1,-1,-1,-1,-1],"loss_changes":[2.836667E1,1.7106632E1,5.56118E0,1.8967056E0,6.881073E0,1.0832024E0,8.5222244E-1,0E0,7.2980547E-1,3.681975E0,3.057661E0,6.08551E-1,4.3276727E-1,2.0888996E-1,2.5311947E-1,0E0,0E0,0E0,0E0,0E0,0E0,0E0,0E0,0E0,0E0,0E0,0E0,0E0,0E0],"parents":[2147483647,0,0,1,1,2,2,3,3,4,4,5,5,6,6,8,8,9,9,10,10,11,11,12,12,13,13,14,14],"right_children":[2,4,6,8,10,12,14,-1,16,18,20,22,24,26,28,-1,-1,-1,-1,-1,-1,-1,-1,-1,-1,-1,-1,-1,-1],"split_conditions":[2.8766275E2,-4.8681454E2,4.5065588E2,-6.0851904E2,1E0,1E0,5.7769275E2,-4.5179695E-2,1E0,-3.866824E2,-8.774827E0,3.7824905E2,3.3394736E2,1E0,1E0,-2.5309851E-2,-2.724603E-3,-1.4425299E-2,2.0662078E-3,1.1089457E-2,4.5401384E-3,-1.2411454E-2,-2.1173885E-2,-1.1356335E-2,-1.2450768E-3,-2.5169391E-2,-4.6882957E-2,-2.883114E-2,-4.580718E-2],"split_indices":[0,0,0,0,2,2,0,0,2,0,0,0,0,5,4,0,0,0,0,0,0,0,0,0,0,0,0,0,0],"split_type":[0,0,0,0,0,0,0,0,0,0,0,0,0,0,0,0,0,0,0,0,0,0,0,0,0,0,0,0,0],"sum_hessian":[8.804032E3,8.053629E3,7.5040393E2,1.5252446E2,7.901104E3,5.6440784E2,1.8599605E2,5.283668E1,9.9687775E1,5.04503E3,2.8560742E3,3.9132516E2,1.730827E2,1.18322784E2,6.767327E1,8.209156E1,1.7596218E1,1.3823228E2,4.906798E3,1.4003085E3,1.4557657E3,2.7530756E2,1.16017586E2,7.238044E1,1.0070226E2,1.130908E2,5.231992E0,1.9875658E1,4.7797607E1],"tree_param":{"num_deleted":"0","num_feature":"7","num_nodes":"29","size_leaf_vector":"1"}},{"base_weights":[-5.6405123E-3,-1.8661201E-1,1.3246666E-1,-3.5629416E-1,-1.2846026E-1,6.8803094E-2,3.0358776E-1,-4.6330613E-1,-2.95867E-1,-1.9733818E-1,-9.2528686E-2,8.3694444E-4,1.13000624E-1,2.677216E-1,4.7832927E-1,-5.6341935E-2,-4.286178E-2,-3.3467744E-2,-1.823352E-2,-1.617979E-2,-3.0400028E-2,-6.9463896E-3,-1.465518E-2,3.4878117E-3,-7.0466823E-3,8.05906E-3,1.842068E-2,2.3572475E-2,3.2758486E-2,4.3160003E-2,5.3661626E-2],"categories":[],"categories_nodes":[],"categories_segments":[],"categories_sizes":[],"default_left":[0,0,0,0,0,0,0,0,0,0,0,0,0,0,0,0,0,0,0,0,0,0,0,0,0,0,0,0,0,0,0],"id":37,"left_children":[1,3,5,7,9,11,13,15,17,19,21,23,25,27,29,-1,-1,-1,-1,-1,-1,-1,-1,-1,-1,-1,-1,-1,-1,-1,-1],"loss_changes":[2.8631656E2,4.8879852E1,7.076203E1,8.042923E0,9.124878E0,1.4228992E1,1.0911819E1,1.3377686E0,3.513466E0,4.7486153E0,3.0173206E0,4.5354357E0,6.6091957E0,2.7265778E0,5.819931E-1,0E0,0E0,0E0,0E0,0E0,0E0,0E0,0E0,0E0,0E0,0E0,0E0,0E0,0E0,0E0,0E0],"parents":[2147483647,0,0,1,1,2,2,3,3,4,4,5,5,6,6,7,7,8,8,9,9,10,10,11,11,12,12,13,13,14,14],"right_children":[2,4,6,8,10,12,14,16,18,20,22,24,26,28,30,-1,-1,-1,-1,-1,-1,-1,-1,-1,-1,-1,-1,-1,-1,-1,-1],"split_conditions":[-8.774827E0,-2.4167328E2,2.4007841E2,-3.757749E2,-1.3550842E2,7.739849E1,4.6417197E2,-5.672506E2,1E0,1E0,1E0,1E0,1E0,3.408849E2,5.7769275E2,-5.6341935E-2,-4.286178E-2,-3.3467744E-2,-1.823352E-2,-1.617979E-2,-3.0400028E-2,-6.9463896E-3,-1.465518E-2,3.4878117E-3,-7.0466823E-3,8.05906E-3,1.842068E-2,2.3572475E-2,3.2758486E-2,4.3160003E-2,5.3661626E-2],"split_indices":[0,0,0,0,0,0,0,0,2,1,1,1,4,0,0,0,0,0,0,0,0,0,0,0,0,0,0,0,0,0,0],"split_type":[0,0,0,0,0,0,0,0,0,0,0,0,0,0,0,0,0,0,0,0,0,0,0,0,0,0,0,0,0,0,0],"sum_hessian":[1.145367E4,4.9573525E3,6.4963174E3,1.2639937E3,3.693359E3,4.7358154E3,1.7605017E3,4.53757E2,8.1023663E2,1.2646445E3,2.4287144E3,1.8665255E3,2.86929E3,1.4627919E3,2.977098E2,1.1284253E2,3.4091446E2,6.0237054E2,2.0786604E2,9.504631E2,3.141815E2,1.703642E3,7.250724E2,1.2637222E3,6.028034E2,1.973272E3,8.96018E2,9.564879E2,5.06304E2,1.6990228E2,1.2780753E2],"tree_param":{"num_deleted":"0","num_feature":"7","num_nodes":"31","size_leaf_vector":"1"}},{"base_weights":[-6.723759E-3,1.361557E-1,-2.0813437E-1,3.264614E-1,7.3678665E-2,-1.3052519E-1,-3.6272222E-1,5.234706E-1,2.7218467E-1,3.2708146E-2,1.6238849E-1,-7.372211E-2,-1.8702415E-1,-3.1058627E-1,-4.526168E-1,6.2407065E-2,4.5505866E-2,2.3480138E-2,3.925447E-2,1.0151402E-2,-2.5301024E-3,2.9327974E-2,1.199715E-2,-1.0891622E-2,-1.1547349E-3,-1.4418951E-2,-2.9318804E-2,-2.8284807E-2,-3.5579227E-2,-4.560547E-2,1.3007595E-2],"categories":[],"categories_nodes":[],"categories_segments":[],"categories_sizes":[],"default_left":[0,0,0,0,0,0,0,0,0,0,0,0,0,0,0,0,0,0,0,0,0,0,0,0,0,0,0,0,0,0,0],"id":38,"left_children":[1,3,5,7,9,11,13,15,17,19,21,23,25,27,29,-1,-1,-1,-1,-1,-1,-1,-1,-1,-1,-1,-1,-1,-1,-1,-1],"loss_changes":[2.7269196E2,6.588613E1,4.7132065E1,1.4504944E1,1.5167368E1,8.393467E0,6.0169373E0,1.7448349E0,4.749344E0,1.1405832E1,7.2860374E0,2.8607903E0,5.927147E0,9.460678E-1,1.0210419E0,0E0,0E0,0E0,0E0,0E0,0E0,0E0,0E0,0E0,0E0,0E0,0E0,0E0,0E0,0E0,0E0],"parents":[2147483647,0,0,1,1,2,2,3,3,4,4,5,5,6,6,7,7,8,8,9,9,10,10,11,11,12,12,13,13,14,14],"right_children":[2,4,6,8,10,12,14,16,18,20,22,24,26,28,30,-1,-1,-1,-1,-1,-1,-1,-1,-1,-1,-1,-1,-1,-1,-1,-1],"split_conditions":[1.1809239E1,-2.668098E2,2.036147E2,-4.8681454E2,1E0,9.308186E1,3.3394736E2,-6.0851904E2,1E0,-1.21061806E2,-1.7102858E2,1E0,1E0,1E0,1E0,6.2407065E-2,4.5505866E-2,2.3480138E-2,3.925447E-2,1.0151402E-2,-2.5301024E-3,2.9327974E-2,1.199715E-2,-1.0891622E-2,-1.1547349E-3,-1.4418951E-2,-2.9318804E-2,-2.8284807E-2,-3.5579227E-2,-4.560547E-2,1.3007595E-2],"split_indices":[0,0,0,0,1,0,0,0,1,0,0,1,4,4,6,0,0,0,0,0,0,0,0,0,0,0,0,0,0,0,0],"split_type":[0,0,0,0,0,0,0,0,0,0,0,0,0,0,0,0,0,0,0,0,0,0,0,0,0,0,0,0,0,0,0],"sum_hessian":[9.473909E3,5.542452E3,3.9314575E3,1.3688116E3,4.17364E3,2.618641E3,1.3128165E3,2.9379056E2,1.0750211E3,2.855979E3,1.3176615E3,1.3069556E3,1.3116854E3,8.337333E2,4.7908328E2,1.15631516E2,1.7815904E2,8.225054E2,2.5251567E2,1.306071E3,1.5499078E3,3.2104865E2,9.9661285E2,8.340747E2,4.728809E2,9.362776E2,3.7540787E2,5.2119006E2,3.1254318E2,4.7648932E2,2.5939476E0],"tree_param":{"num_deleted":"0","num_feature":"7","num_nodes":"31","size_leaf_vector":"1"}},{"base_weights":[1.5468606E-2,3.1053472E-2,-1.5654634E-1,-2.8197983E-1,3.6854234E-2,-1.0889367E-1,-3.043871E-1,-4.399837E-2,-1.975828E-1,1.5994752E-2,7.3556125E-2,-1.3752621E-1,-4.4212535E-2,-2.4826305E-1,-3.994197E-1,-2.368628E-2,-1.4339372E-3,-1.3552419E-2,2.023339E-3,8.25332E-3,-2.862466E-3,-1.6182784E-2,-7.3942556E-3,-8.897251E-3,1.2499295E-3,-2.3450738E-2,-4.603794E-2,-2.6977852E-2,-4.4698972E-2],"categories":[],"categories_nodes":[],"categories_segments":[],"categories_sizes":[],"default_left":[0,0,0,0,0,0,0,0,0,0,0,0,0,0,0,0,0,0,0,0,0,0,0,0,0,0,0,0,0],"id":39,"left_children":[1,3,5,7,9,11,13,-1,15,17,19,21,23,25,27,-1,-1,-1,-1,-1,-1,-1,-1,-1,-1,-1,-1,-1,-1],"loss_changes":[2.355769E1,1.4639845E1,5.1099453E0,1.8692522E0,6.0552855E0,1.0192547E0,8.469868E-1,0E0,6.9792247E-1,3.2430582E0,2.6317883E0,5.8028364E-1,4.3608057E-1,2.251625E-1,2.7547646E-1,0E0,0E0,0E0,0E0,0E0,0E0,0E0,0E0,0E0,0E0,0E0,0E0,0E0,0E0],"parents":[2147483647,0,0,1,1,2,2,3,3,4,4,5,5,6,6,8,8,9,9,10,10,11,11,12,12,13,13,14,14],"right_children":[2,4,6,8,10,12,14,-1,16,18,20,22,24,26,28,-1,-1,-1,-1,-1,-1,-1,-1,-1,-1,-1,-1,-1,-1],"split_conditions":[2.8766275E2,-4.8681454E2,4.5065588E2,-6.0851904E2,1E0,1E0,5.7769275E2,-4.399837E-2,1E0,-3.866824E2,2.0072046E2,1E0,3.5540955E2,1E0,1E0,-2.368628E-2,-1.4339372E-3,-1.3552419E-2,2.023339E-3,8.25332E-3,-2.862466E-3,-1.6182784E-2,-7.3942556E-3,-8.897251E-3,1.2499295E-3,-2.3450738E-2,-4.603794E-2,-2.6977852E-2,-4.4698972E-2],"split_indices":[0,0,0,0,2,2,0,0,2,0,0,1,0,5,4,0,0,0,0,0,0,0,0,0,0,0,0,0,0],"split_type":[0,0,0,0,0,0,0,0,0,0,0,0,0,0,0,0,0,0,0,0,0,0,0,0,0,0,0,0,0],"sum_hessian":[8.784648E3,8.0556143E3,7.290339E2,1.4569493E2,7.9099194E3,5.5264087E2,1.76393E2,4.925986E1,9.6435074E1,5.044385E3,2.8655347E3,3.8228687E2,1.7035402E2,1.1316991E2,6.32231E1,7.917132E1,1.7263752E1,1.3643015E2,4.9079546E3,2.634292E3,2.3124284E2,2.7546085E2,1.06826004E2,9.489165E1,7.5462364E1,1.0825516E2,4.9147515E0,1.876221E1,4.446089E1],"tree_param":{"num_deleted":"0","num_feature":"7","num_nodes":"29","size_leaf_vector":"1"}},{"base_weights":[-6.035446E-3,-1.7438865E-1,1.22032054E-1,-3.3810318E-1,-1.1958728E-1,4.2899787E-2,2.4331398E-1,-4.4658342E-1,-2.7833137E-1,-1.8845111E-1,-8.7768935E-2,7.425477E-2,-2.1384742E-2,2.0015164E-1,3.9004943E-1,-5.5066675E-2,-4.1162815E-2,-3.1672236E-2,-1.6675467E-2,-1.548986E-2,-2.896193E-2,-6.6391304E-3,-1.3874314E-2,2.016387E-3,1.0974081E-2,-3.3150022E-3,1.7576456E-2,1.7287983E-2,2.5972208E-2,3.2212894E-2,4.591233E-2],"categories":[],"categories_nodes":[],"categories_segments":[],"categories_sizes":[],"default_left":[0,0,0,0,0,0,0,0,0,0,0,0,0,0,0,0,0,0,0,0,0,0,0,0,0,0,0,0,0,0,0],"id":40,"left_children":[1,3,5,7,9,11,13,15,17,19,21,23,25,27,29,-1,-1,-1,-1,-1,-1,-1,-1,-1,-1,-1,-1,-1,-1,-1,-1],"loss_changes":[2.4461034E2,4.3936234E1,6.1830887E1,7.8428955E0,8.033527E0,7.863805E0,1.603424E1,1.3554535E0,3.352085E0,3.8933449E0,2.7311192E0,5.0307045E0,2.9738162E0,3.1520157E0,2.5599594E0,0E0,0E0,0E0,0E0,0E0,0E0,0E0,0E0,0E0,0E0,0E0,0E0,0E0,0E0,0E0,0E0],"parents":[2147483647,0,0,1,1,2,2,3,3,4,4,5,5,6,6,7,7,8,8,9,9,10,10,11,11,12,12,13,13,14,14],"right_children":[2,4,6,8,10,12,14,16,18,20,22,24,26,28,30,-1,-1,-1,-1,-1,-1,-1,-1,-1,-1,-1,-1,-1,-1,-1,-1],"split_conditions":[-8.774827E0,-2.4167328E2,1.8346706E2,-3.757749E2,-1.4154478E2,1E0,3.7824905E2,-5.672506E2,1E0,1E0,1E0,6.114143E1,1.7157463E2,2.8766275E2,4.6417197E2,-5.5066675E-2,-4.1162815E-2,-3.1672236E-2,-1.6675467E-2,-1.548986E-2,-2.896193E-2,-6.6391304E-3,-1.3874314E-2,2.016387E-3,1.0974081E-2,-3.3150022E-3,1.7576456E-2,1.7287983E-2,2.5972208E-2,3.2212894E-2,4.591233E-2],"split_indices":[0,0,0,0,0,1,0,0,2,1,1,0,0,0,0,0,0,0,0,0,0,0,0,0,0,0,0,0,0,0,0],"split_type":[0,0,0,0,0,0,0,0,0,0,0,0,0,0,0,0,0,0,0,0,0,0,0,0,0,0,0,0,0,0,0],"sum_hessian":[1.1343274E4,4.9006646E3,6.4426094E3,1.2277358E3,3.672929E3,3.8996052E3,2.5430042E3,4.3385614E2,7.938797E2,1.159191E3,2.5137378E3,2.621033E3,1.2785724E3,1.9668251E3,5.761791E2,1.0536539E2,3.2849075E2,5.892824E2,2.0459729E2,8.7239233E2,2.8679868E2,1.7726315E3,7.411064E2,1.0389473E3,1.5820856E3,1.207353E3,7.121935E1,1.3518429E3,6.1498224E2,2.933706E2,2.8280847E2],"tree_param":{"num_deleted":"0","num_feature":"7","num_nodes":"31","size_leaf_vector":"1"}},{"base_weights":[-7.1825488E-3,1.6513541E-1,-1.523511E-1,3.6029056E-1,1.1565528E-1,-6.110287E-2,-3.000097E-1,5.140956E-1,3.0115926E-1,7.4949995E-2,2.1337621E-1,-1.01309955E-1,1.0407977E-2,-2.3912126E-1,-4.0345776E-1,6.0133923E-2,4.3626744E-2,3.3629544E-2,2.6031643E-2,1.1169254E-2,4.4479428E-4,3.9436042E-2,1.6729886E-2,-7.4883113E-3,-1.858048E-2,7.199497E-3,-2.5644512E-3,-1.9791992E-2,-3.279266E-2,-3.4711808E-2,-4.5759473E-2],"categories":[],"categories_nodes":[],"categories_segments":[],"categories_sizes":[],"default_left":[0,0,0,0,0,0,0,0,0,0,0,0,0,0,0,0,0,0,0,0,0,0,0,0,0,0,0,0,0,0,0],"id":41,"left_children":[1,3,5,7,9,11,13,15,17,19,21,23,25,27,29,-1,-1,-1,-1,-1,-1,-1,-1,-1,-1,-1,-1,-1,-1,-1,-1],"loss_changes":[2.3488199E2,4.141619E1,6.864627E1,7.738495E0,1.3613567E1,9.06104E0,1.2162262E1,1.3645287E0,8.1555176E-1,6.2694016E0,8.331928E0,4.49008E0,2.5218666E0,4.4266434E0,2.0360947E0,0E0,0E0,0E0,0E0,0E0,0E0,0E0,0E0,0E0,0E0,0E0,0E0,0E0,0E0,0E0,0E0],"parents":[2147483647,0,0,1,1,2,2,3,3,4,4,5,5,6,6,7,7,8,8,9,9,10,10,11,11,12,12,13,13,14,14],"right_children":[2,4,6,8,10,12,14,16,18,20,22,24,26,28,30,-1,-1,-1,-1,-1,-1,-1,-1,-1,-1,-1,-1,-1,-1,-1,-1],"split_conditions":[-5.65356E1,-3.319652E2,1.3945232E2,-5.0699063E2,1E0,1E0,2.7944208E2,-6.0851904E2,-3.866824E2,1E0,-2.3694818E2,8.240181E1,9.5314245E0,1E0,3.6265314E2,6.0133923E-2,4.3626744E-2,3.3629544E-2,2.6031643E-2,1.1169254E-2,4.4479428E-4,3.9436042E-2,1.6729886E-2,-7.4883113E-3,-1.858048E-2,7.199497E-3,-2.5644512E-3,-1.9791992E-2,-3.279266E-2,-3.4711808E-2,-4.5759473E-2],"split_indices":[0,0,0,0,1,1,0,0,0,2,0,0,0,4,0,0,0,0,0,0,0,0,0,0,0,0,0,0,0,0,0],"split_type":[0,0,0,0,0,0,0,0,0,0,0,0,0,0,0,0,0,0,0,0,0,0,0,0,0,0,0,0,0,0,0],"sum_hessian":[9.387584E3,4.292346E3,5.095238E3,8.669031E2,3.425443E3,3.1500332E3,1.9452047E3,2.3859782E2,6.2830524E2,2.4194128E3,1.00603033E3,2.0160752E3,1.133958E3,1.2265702E3,7.186346E2,1.0932291E2,1.2927492E2,3.3385947E2,2.9444574E2,1.5901255E3,8.2928723E2,2.0261871E2,8.034116E2,1.5371865E3,4.7888864E2,4.1833557E2,7.156225E2,8.400546E2,3.865156E2,3.5578506E2,3.628495E2],"tree_param":{"num_deleted":"0","num_feature":"7","num_nodes":"31","size_leaf_vector":"1"}},{"base_weights":[1.6221281E-2,3.0166792E-2,-1.4209805E-1,-2.6557758E-1,3.5405282E-2,-1.09637655E-1,-3.517292E-1,-4.28031E-1,-1.8210942E-1,1.5895816E-2,6.961889E-2,-1.4017563E-1,-3.9264932E-2,-3.166237E-1,-5.08645E-2,-4.6557505E-2,-3.2942027E-2,-2.2132387E-2,-2.9099474E-4,-2.3423659E-2,1.8122516E-3,9.814095E-3,4.1931444E-3,-9.959232E-3,-2.0461842E-2,-6.0585565E-3,4.5067444E-3,-3.3223156E-2,-2.1585112E-2],"categories":[],"categories_nodes":[],"categories_segments":[],"categories_sizes":[],"default_left":[0,0,0,0,0,0,0,0,0,0,0,0,0,0,0,0,0,0,0,0,0,0,0,0,0,0,0,0,0],"id":42,"left_children":[1,3,5,7,9,11,13,15,17,19,21,23,25,27,-1,-1,-1,-1,-1,-1,-1,-1,-1,-1,-1,-1,-1,-1,-1],"loss_changes":[1.936157E1,1.2494167E1,4.792368E0,1.8254766E0,5.2848682E0,1.3187356E0,3.6082363E-1,2.027893E-2,6.6321707E-1,2.8139606E0,2.266714E0,1.1024618E0,3.4051755E-1,5.42202E-2,0E0,0E0,0E0,0E0,0E0,0E0,0E0,0E0,0E0,0E0,0E0,0E0,0E0,0E0,0E0],"parents":[2147483647,0,0,1,1,2,2,3,3,4,4,5,5,6,6,7,7,8,8,9,9,10,10,11,11,12,12,13,13],"right_children":[2,4,6,8,10,12,14,16,18,20,22,24,26,28,-1,-1,-1,-1,-1,-1,-1,-1,-1,-1,-1,-1,-1,-1,-1],"split_conditions":[2.8766275E2,-4.8681454E2,5.1748663E2,-6.0851904E2,1E0,1E0,7.521008E2,-6.609834E2,1E0,-4.428386E2,-8.774827E0,3.7824905E2,1E0,1E0,-5.08645E-2,-4.6557505E-2,-3.2942027E-2,-2.2132387E-2,-2.9099474E-4,-2.3423659E-2,1.8122516E-3,9.814095E-3,4.1931444E-3,-9.959232E-3,-2.0461842E-2,-6.0585565E-3,4.5067444E-3,-3.3223156E-2,-2.1585112E-2],"split_indices":[0,0,0,0,2,2,0,0,2,0,0,0,1,1,0,0,0,0,0,0,0,0,0,0,0,0,0,0,0],"split_type":[0,0,0,0,0,0,0,0,0,0,0,0,0,0,0,0,0,0,0,0,0,0,0,0,0,0,0,0,0],"sum_hessian":[8.766505E3,8.0575664E3,7.0893884E2,1.3937384E2,7.9181924E3,6.1520087E2,9.373796E1,4.5903717E1,9.3470116E1,5.0436436E3,2.8745488E3,4.2833472E2,1.8686615E2,7.906678E1,1.4671187E1,3.0550785E1,1.5352932E1,7.649545E1,1.6974665E1,4.3583435E1,5.00006E3,1.4146799E3,1.459869E3,2.6438306E2,1.6395166E2,1.4938158E2,3.7484577E1,6.647427E1,1.2592503E1],"tree_param":{"num_deleted":"0","num_feature":"7","num_nodes":"29","size_leaf_vector":"1"}},{"base_weights":[-6.347953E-3,-1.4141504E-1,1.315665E-1,-2.8767824E-1,-8.189148E-2,7.3647596E-2,2.655922E-1,-4.2984527E-1,-2.3935677E-1,-1.2948054E-1,-5.110703E-2,1.075524E-1,2.8739949E-3,2.3195682E-1,4.4050968E-1,-5.3881258E-2,-3.943713E-2,-2.1406367E-2,-3.2267433E-2,-1.0792142E-2,-1.8897293E-2,-3.3931078E-3,-9.060367E-3,1.470414E-2,5.0601675E-3,-1.2505333E-3,2.1081535E-2,2.601825E-2,1.6750822E-2,3.9060447E-2,5.043236E-2],"categories":[],"categories_nodes":[],"categories_segments":[],"categories_sizes":[],"default_left":[0,0,0,0,0,0,0,0,0,0,0,0,0,0,0,0,0,0,0,0,0,0,0,0,0,0,0,0,0,0,0],"id":43,"left_children":[1,3,5,7,9,11,13,15,17,19,21,23,25,27,29,-1,-1,-1,-1,-1,-1,-1,-1,-1,-1,-1,-1,-1,-1,-1,-1],"loss_changes":[2.0936134E2,4.9411606E1,4.314862E1,1.1177322E1,5.907892E0,9.320524E0,9.768105E0,1.3927612E0,2.5182266E0,2.0126896E0,1.6610718E0,5.8987465E0,4.0294275E0,2.5198746E0,6.6114044E-1,0E0,0E0,0E0,0E0,0E0,0E0,0E0,0E0,0E0,0E0,0E0,0E0,0E0,0E0,0E0,0E0],"parents":[2147483647,0,0,1,1,2,2,3,3,4,4,5,5,6,6,7,7,8,8,9,9,10,10,11,11,12,12,13,13,14,14],"right_children":[2,4,6,8,10,12,14,16,18,20,22,24,26,28,30,-1,-1,-1,-1,-1,-1,-1,-1,-1,-1,-1,-1,-1,-1,-1,-1],"split_conditions":[2.919292E1,-1.9628627E2,2.4007841E2,-3.757749E2,-8.952883E1,1E0,4.6417197E2,-5.672506E2,1E0,1E0,1E0,1E0,1E0,1E0,5.7769275E2,-5.3881258E-2,-3.943713E-2,-2.1406367E-2,-3.2267433E-2,-1.0792142E-2,-1.8897293E-2,-3.3931078E-3,-9.060367E-3,1.470414E-2,5.0601675E-3,-1.2505333E-3,2.1081535E-2,2.601825E-2,1.6750822E-2,3.9060447E-2,5.043236E-2],"split_indices":[0,0,0,0,0,1,0,0,1,1,1,2,6,2,0,0,0,0,0,0,0,0,0,0,0,0,0,0,0,0,0],"split_type":[0,0,0,0,0,0,0,0,0,0,0,0,0,0,0,0,0,0,0,0,0,0,0,0,0,0,0,0,0,0,0],"sum_hessian":[1.1237247E4,5.6772163E3,5.5600312E3,1.6410192E3,4.036197E3,3.8833845E3,1.6766464E3,4.1427673E2,1.2267424E3,1.5841246E3,2.4520725E3,2.6252249E3,1.2581599E3,1.4081882E3,2.6845822E2,9.825927E1,3.1601746E2,9.437985E2,2.829439E2,1.1648245E3,4.1930023E2,1.7102101E3,7.418623E2,1.5493447E3,1.07588E3,1.1723899E3,8.577002E1,9.771862E2,4.31002E2,1.5464229E2,1.1381592E2],"tree_param":{"num_deleted":"0","num_feature":"7","num_nodes":"31","size_leaf_vector":"1"}},{"base_weights":[-7.6174275E-3,1.1415897E-1,-1.8615383E-1,3.3501825E-1,7.383214E-2,-1.1515946E-1,-3.3615708E-1,4.8926097E-1,2.778675E-1,1.4777996E-1,2.3970349E-2,-6.4806215E-2,-1.6637982E-1,-2.92216E-1,-4.4678515E-1,5.808718E-2,4.1002486E-2,3.3244334E-2,2.5419652E-2,1.04130935E-2,2.6512623E-2,-1.1914425E-3,9.549367E-3,-9.58475E-3,-1.082371E-3,-1.2603325E-2,-2.6881674E-2,-2.6058087E-2,-3.4388438E-2,-4.492476E-2,1.40881855E-2],"categories":[],"categories_nodes":[],"categories_segments":[],"categories_sizes":[],"default_left":[0,0,0,0,0,0,0,0,0,0,0,0,0,0,0,0,0,0,0,0,0,0,0,0,0,0,0,0,0,0,0],"id":44,"left_children":[1,3,5,7,9,11,13,15,17,19,21,23,25,27,29,-1,-1,-1,-1,-1,-1,-1,-1,-1,-1,-1,-1,-1,-1,-1,-1],"loss_changes":[2.0232634E2,4.9250458E1,4.0147278E1,7.3914566E0,1.7250717E1,6.59906E0,5.75972E0,1.4280777E0,7.233963E-1,9.624363E0,7.177717E0,2.1672935E0,5.214344E0,1.3326645E0,5.59021E-1,0E0,0E0,0E0,0E0,0E0,0E0,0E0,0E0,0E0,0E0,0E0,0E0,0E0,0E0,0E0,0E0],"parents":[2147483647,0,0,1,1,2,2,3,3,4,4,5,5,6,6,7,7,8,8,9,9,10,10,11,11,12,12,13,13,14,14],"right_children":[2,4,6,8,10,12,14,16,18,20,22,24,26,28,30,-1,-1,-1,-1,-1,-1,-1,-1,-1,-1,-1,-1,-1,-1,-1,-1],"split_conditions":[1.1809239E1,-3.319652E2,2.036147E2,-5.0699063E2,-1.5207506E2,9.308186E1,3.6265314E2,-6.0851904E2,-4.2595218E2,1E0,1E0,1E0,1E0,1E0,1E0,5.808718E-2,4.1002486E-2,3.3244334E-2,2.5419652E-2,1.04130935E-2,2.6512623E-2,-1.1914425E-3,9.549367E-3,-9.58475E-3,-1.082371E-3,-1.2603325E-2,-2.6881674E-2,-2.6058087E-2,-3.4388438E-2,-4.492476E-2,1.40881855E-2],"split_indices":[0,0,0,0,0,0,0,0,0,1,1,1,4,4,6,0,0,0,0,0,0,0,0,0,0,0,0,0,0,0,0],"split_type":[0,0,0,0,0,0,0,0,0,0,0,0,0,0,0,0,0,0,0,0,0,0,0,0,0,0,0,0,0,0,0],"sum_hessian":[9.304012E3,5.5314634E3,3.7725488E3,8.529231E2,4.67854E3,2.5618364E3,1.2107123E3,2.2854579E2,6.243773E2,1.8833958E3,2.7951443E3,1.2929956E3,1.2688408E3,8.691359E2,3.415764E2,1.0305976E2,1.2548602E2,1.8493852E2,4.3943878E2,1.3741455E3,5.092503E2,1.8618488E3,9.332956E2,8.2044415E2,4.7255142E2,9.1190247E2,3.5693842E2,5.428233E2,3.2631262E2,3.4038568E2,1.1907233E0],"tree_param":{"num_deleted":"0","num_feature":"7","num_nodes":"31","size_leaf_vector":"1"}},{"base_weights":[1.6835859E-2,2.9360542E-2,-1.290036E-1,-2.4926226E-1,3.4083396E-2,-9.8097496E-2,-3.366169E-1,-4.1600716E-1,-1.6688266E-1,1.6048929E-2,6.55901E-2,-1.271181E-1,-3.213176E-2,-3.0026022E-1,-5.0247487E-2,-4.558111E-2,-3.13228E-2,-1.21973045E-2,-3.311297E-2,-2.2100804E-2,1.8108011E-3,9.225858E-3,3.963497E-3,-8.781399E-3,-1.9036477E-2,-8.6303605E-3,8.101768E-5,-3.1639397E-2,-1.9812316E-2],"categories":[],"categories_nodes":[],"categories_segments":[],"categories_sizes":[],"default_left":[0,0,0,0,0,0,0,0,0,0,0,0,0,0,0,0,0,0,0,0,0,0,0,0,0,0,0,0,0],"id":45,"left_children":[1,3,5,7,9,11,13,15,17,19,21,23,25,27,-1,-1,-1,-1,-1,